<?xml version="1.0"?>
<opencv_storage>
<stage7>
  <maxWeakCount>7</maxWeakCount>
  <stageThreshold>-9.5575553178787231e-01</stageThreshold>
  <weakClassifiers>
    <_>
      <internalNodes>
        0 -1 26273 1.0017111198976636e-03</internalNodes>
      <leafValues>
        -7.5598084926605225e-01 6.0404282808303833e-01</leafValues></_>
    <_>
      <internalNodes>
        0 -1 73357 -2.1210577338933945e-02</internalNodes>
      <leafValues>
        5.6875520944595337e-01 -4.0606904029846191e-01</leafValues></_>
    <_>
      <internalNodes>
        0 -1 32967 -1.5926287742331624e-03</internalNodes>
      <leafValues>
        3.2876196503639221e-01 -7.0589017868041992e-01</leafValues></_>
    <_>
      <internalNodes>
        0 -1 49475 1.8736597150564194e-02</internalNodes>
      <leafValues>
        -7.8712278604507446e-01 2.2402249276638031e-01</leafValues></_>
    <_>
      <internalNodes>
        0 -1 52993 6.9675347767770290e-03</internalNodes>
      <leafValues>
        -8.2041746377944946e-01 2.1015967428684235e-01</leafValues></_>
    <_>
      <internalNodes>
        0 -1 71030 -1.1862219311296940e-02</internalNodes>
      <leafValues>
        2.3279720544815063e-01 -7.4161440134048462e-01</leafValues></_>
    <_>
      <internalNodes>
        0 -1 25810 -1.0947627015411854e-03</internalNodes>
      <leafValues>
        -9.1371721029281616e-01 1.8496461212635040e-01</leafValues></_></weakClassifiers></stage7>
</opencv_storage>
