<?xml version="1.0"?>
<opencv_storage>
<cascade>
  <stageType>BOOST</stageType>
  <featureType>HAAR</featureType>
  <height>20</height>
  <width>20</width>
  <stageParams>
    <boostType>GAB</boostType>
    <minHitRate>9.9500000476837158e-01</minHitRate>
    <maxFalseAlarm>5.0000000000000000e-01</maxFalseAlarm>
    <weightTrimRate>9.4999999999999996e-01</weightTrimRate>
    <maxDepth>1</maxDepth>
    <maxWeakCount>100</maxWeakCount></stageParams>
  <featureParams>
    <maxCatCount>0</maxCatCount>
    <featSize>1</featSize>
    <mode>BASIC</mode></featureParams>
  <stageNum>5</stageNum>
  <stages>
    <!-- stage 0 -->
    <_>
      <maxWeakCount>5</maxWeakCount>
      <stageThreshold>-1.0671091079711914e+00</stageThreshold>
      <weakClassifiers>
        <_>
          <internalNodes>
            0 -1 12 -1.3973986729979515e-02</internalNodes>
          <leafValues>
            7.7907824516296387e-01 -7.3459714651107788e-01</leafValues></_>
        <_>
          <internalNodes>
            0 -1 23 -2.9266290366649628e-03</internalNodes>
          <leafValues>
            4.6637943387031555e-01 -5.6665074825286865e-01</leafValues></_>
        <_>
          <internalNodes>
            0 -1 36 -8.5567368660122156e-04</internalNodes>
          <leafValues>
            4.2111727595329285e-01 -5.4678392410278320e-01</leafValues></_>
        <_>
          <internalNodes>
            0 -1 7 -2.1919736173003912e-04</internalNodes>
          <leafValues>
            4.3100541830062866e-01 -4.6286579966545105e-01</leafValues></_>
        <_>
          <internalNodes>
            0 -1 34 2.8759456472471356e-04</internalNodes>
          <leafValues>
            -6.1798387765884399e-01 3.2428500056266785e-01</leafValues></_></weakClassifiers></_>
    <!-- stage 1 -->
    <_>
      <maxWeakCount>6</maxWeakCount>
      <stageThreshold>-8.2810080051422119e-01</stageThreshold>
      <weakClassifiers>
        <_>
          <internalNodes>
            0 -1 11 -9.1289859265089035e-03</internalNodes>
          <leafValues>
            6.0824739933013916e-01 -7.6785713434219360e-01</leafValues></_>
        <_>
          <internalNodes>
            0 -1 28 7.5253381510265172e-05</internalNodes>
          <leafValues>
            -7.0295292139053345e-01 3.5529395937919617e-01</leafValues></_>
        <_>
          <internalNodes>
            0 -1 4 -3.7420165608637035e-04</internalNodes>
          <leafValues>
            3.5278028249740601e-01 -5.3977292776107788e-01</leafValues></_>
        <_>
          <internalNodes>
            0 -1 33 -9.3400618061423302e-04</internalNodes>
          <leafValues>
            -7.7547562122344971e-01 2.1260614693164825e-01</leafValues></_>
        <_>
          <internalNodes>
            0 -1 24 3.9134293794631958e-02</internalNodes>
          <leafValues>
            -2.9616653919219971e-01 7.8147464990615845e-01</leafValues></_>
        <_>
          <internalNodes>
            0 -1 17 -5.5002523586153984e-03</internalNodes>
          <leafValues>
            -8.4321838617324829e-01 2.0779570937156677e-01</leafValues></_></weakClassifiers></_>
    <!-- stage 2 -->
    <_>
      <maxWeakCount>7</maxWeakCount>
      <stageThreshold>-6.5922981500625610e-01</stageThreshold>
      <weakClassifiers>
        <_>
          <internalNodes>
            0 -1 1 -3.2903463579714298e-04</internalNodes>
          <leafValues>
            6.2962961196899414e-01 -3.4416544437408447e-01</leafValues></_>
        <_>
          <internalNodes>
            0 -1 16 -2.0504849962890148e-03</internalNodes>
          <leafValues>
            3.1708592176437378e-01 -6.8214946985244751e-01</leafValues></_>
        <_>
          <internalNodes>
            0 -1 18 -2.4522463791072369e-03</internalNodes>
          <leafValues>
            -8.5879009962081909e-01 2.2681464254856110e-01</leafValues></_>
        <_>
          <internalNodes>
            0 -1 8 2.5750475004315376e-02</internalNodes>
          <leafValues>
            -3.3972075581550598e-01 5.2393543720245361e-01</leafValues></_>
        <_>
          <internalNodes>
            0 -1 20 -1.8421246204525232e-03</internalNodes>
          <leafValues>
            -7.5866609811782837e-01 2.1517491340637207e-01</leafValues></_>
        <_>
          <internalNodes>
            0 -1 19 3.5466144327074289e-03</internalNodes>
          <leafValues>
            1.5649913251399994e-01 -9.1372925043106079e-01</leafValues></_>
        <_>
          <internalNodes>
            0 -1 6 -1.3266156893223524e-03</internalNodes>
          <leafValues>
            1.9468650221824646e-01 -6.5261042118072510e-01</leafValues></_></weakClassifiers></_>
    <!-- stage 3 -->
    <_>
      <maxWeakCount>9</maxWeakCount>
      <stageThreshold>-6.3363468647003174e-01</stageThreshold>
      <weakClassifiers>
        <_>
          <internalNodes>
            0 -1 9 -2.8335297247394919e-04</internalNodes>
          <leafValues>
            5.5368423461914062e-01 -3.2869565486907959e-01</leafValues></_>
        <_>
          <internalNodes>
            0 -1 30 1.5937953721731901e-03</internalNodes>
          <leafValues>
            -4.1116061806678772e-01 4.0249946713447571e-01</leafValues></_>
        <_>
          <internalNodes>
            0 -1 15 4.7663813456892967e-03</internalNodes>
          <leafValues>
            1.5856385231018066e-01 -9.3056452274322510e-01</leafValues></_>
        <_>
          <internalNodes>
            0 -1 29 -4.4215723872184753e-02</internalNodes>
          <leafValues>
            -8.0551540851593018e-01 1.5358167886734009e-01</leafValues></_>
        <_>
          <internalNodes>
            0 -1 26 -5.4585555335506797e-04</internalNodes>
          <leafValues>
            2.0662721991539001e-01 -7.1359926462173462e-01</leafValues></_>
        <_>
          <internalNodes>
            0 -1 13 7.2827078402042389e-02</internalNodes>
          <leafValues>
            -2.5458338856697083e-01 6.9197624921798706e-01</leafValues></_>
        <_>
          <internalNodes>
            0 -1 0 -1.9673095084726810e-03</internalNodes>
          <leafValues>
            5.4442304372787476e-01 -2.5404670834541321e-01</leafValues></_>
        <_>
          <internalNodes>
            0 -1 2 1.7391856759786606e-02</internalNodes>
          <leafValues>
            1.3202530145645142e-01 -9.1788941621780396e-01</leafValues></_>
        <_>
          <internalNodes>
            0 -1 5 -8.1970300525426865e-03</internalNodes>
          <leafValues>
            -8.3364611864089966e-01 1.2468096613883972e-01</leafValues></_></weakClassifiers></_>
    <!-- stage 4 -->
    <_>
      <maxWeakCount>11</maxWeakCount>
      <stageThreshold>-8.1050395965576172e-01</stageThreshold>
      <weakClassifiers>
        <_>
          <internalNodes>
            0 -1 1 -5.1844911649823189e-04</internalNodes>
          <leafValues>
            5.9290671348571777e-01 -2.4039828777313232e-01</leafValues></_>
        <_>
          <internalNodes>
            0 -1 32 3.5211429349146783e-04</internalNodes>
          <leafValues>
            -5.2596670389175415e-01 3.1418958306312561e-01</leafValues></_>
        <_>
          <internalNodes>
            0 -1 22 1.8052045255899429e-02</internalNodes>
          <leafValues>
            -2.0733731985092163e-01 6.6296750307083130e-01</leafValues></_>
        <_>
          <internalNodes>
            0 -1 35 1.5756553038954735e-03</internalNodes>
          <leafValues>
            1.7872753739356995e-01 -7.7051526308059692e-01</leafValues></_>
        <_>
          <internalNodes>
            0 -1 31 -1.4106642454862595e-02</internalNodes>
          <leafValues>
            -8.5774499177932739e-01 7.1323439478874207e-02</leafValues></_>
        <_>
          <internalNodes>
            0 -1 14 3.3310131402686238e-04</internalNodes>
          <leafValues>
            -3.9804923534393311e-01 3.2475692033767700e-01</leafValues></_>
        <_>
          <internalNodes>
            0 -1 21 2.6567005552351475e-03</internalNodes>
          <leafValues>
            -6.1700874567031860e-01 2.0471377670764923e-01</leafValues></_>
        <_>
          <internalNodes>
            0 -1 27 5.8977594599127769e-03</internalNodes>
          <leafValues>
            1.8866996467113495e-01 -7.1760737895965576e-01</leafValues></_>
        <_>
          <internalNodes>
            0 -1 25 -1.6017355956137180e-03</internalNodes>
          <leafValues>
            3.9864796400070190e-01 -3.1172615289688110e-01</leafValues></_>
        <_>
          <internalNodes>
            0 -1 3 -4.5093789231032133e-04</internalNodes>
          <leafValues>
            3.0704602599143982e-01 -3.9813134074211121e-01</leafValues></_>
        <_>
          <internalNodes>
            0 -1 10 3.7527438253164291e-03</internalNodes>
          <leafValues>
            1.2529914081096649e-01 -8.9685338735580444e-01</leafValues></_></weakClassifiers></_></stages>
  <features>
    <_>
      <rects>
        <_>
          1 10 2 2 -1.</_>
        <_>
          2 10 1 2 2.</_></rects>
      <tilted>0</tilted></_>
    <_>
      <rects>
        <_>
          3 8 2 1 -1.</_>
        <_>
          4 8 1 1 2.</_></rects>
      <tilted>0</tilted></_>
    <_>
      <rects>
        <_>
          4 5 8 3 -1.</_>
        <_>
          8 5 4 3 2.</_></rects>
      <tilted>0</tilted></_>
    <_>
      <rects>
        <_>
          4 6 2 1 -1.</_>
        <_>
          5 6 1 1 2.</_></rects>
      <tilted>0</tilted></_>
    <_>
      <rects>
        <_>
          4 6 2 2 -1.</_>
        <_>
          5 6 1 2 2.</_></rects>
      <tilted>0</tilted></_>
    <_>
      <rects>
        <_>
          4 6 6 2 -1.</_>
        <_>
          7 6 3 2 2.</_></rects>
      <tilted>0</tilted></_>
    <_>
      <rects>
        <_>
          4 6 8 2 -1.</_>
        <_>
          4 7 8 1 2.</_></rects>
      <tilted>0</tilted></_>
    <_>
      <rects>
        <_>
          4 7 2 1 -1.</_>
        <_>
          5 7 1 1 2.</_></rects>
      <tilted>0</tilted></_>
    <_>
      <rects>
        <_>
          5 1 8 4 -1.</_>
        <_>
          5 3 8 2 2.</_></rects>
      <tilted>0</tilted></_>
    <_>
      <rects>
        <_>
          5 5 1 2 -1.</_>
        <_>
          5 6 1 1 2.</_></rects>
      <tilted>0</tilted></_>
    <_>
      <rects>
        <_>
          5 6 4 2 -1.</_>
        <_>
          7 6 2 2 2.</_></rects>
      <tilted>0</tilted></_>
    <_>
      <rects>
        <_>
          6 4 6 4 -1.</_>
        <_>
          6 6 6 2 2.</_></rects>
      <tilted>0</tilted></_>
    <_>
      <rects>
        <_>
          6 4 8 4 -1.</_>
        <_>
          6 6 8 2 2.</_></rects>
      <tilted>0</tilted></_>
    <_>
      <rects>
        <_>
          7 0 9 6 -1.</_>
        <_>
          7 3 9 3 2.</_></rects>
      <tilted>0</tilted></_>
    <_>
      <rects>
        <_>
          7 3 2 3 -1.</_>
        <_>
          8 3 1 3 2.</_></rects>
      <tilted>0</tilted></_>
    <_>
      <rects>
        <_>
          7 4 3 4 -1.</_>
        <_>
          8 4 1 4 3.</_></rects>
      <tilted>0</tilted></_>
    <_>
      <rects>
        <_>
          7 4 7 2 -1.</_>
        <_>
          7 5 7 1 2.</_></rects>
      <tilted>0</tilted></_>
    <_>
      <rects>
        <_>
          7 5 10 5 -1.</_>
        <_>
          12 5 5 5 2.</_></rects>
      <tilted>0</tilted></_>
    <_>
      <rects>
        <_>
          7 6 3 2 -1.</_>
        <_>
          8 6 1 2 3.</_></rects>
      <tilted>0</tilted></_>
    <_>
      <rects>
        <_>
          8 4 3 3 -1.</_>
        <_>
          9 4 1 3 3.</_></rects>
      <tilted>0</tilted></_>
    <_>
      <rects>
        <_>
          8 5 3 2 -1.</_>
        <_>
          9 5 1 2 3.</_></rects>
      <tilted>0</tilted></_>
    <_>
      <rects>
        <_>
          8 7 10 2 -1.</_>
        <_>
          13 7 5 2 2.</_></rects>
      <tilted>0</tilted></_>
    <_>
      <rects>
        <_>
          9 0 3 4 -1.</_>
        <_>
          9 2 3 2 2.</_></rects>
      <tilted>0</tilted></_>
    <_>
      <rects>
        <_>
          9 3 2 4 -1.</_>
        <_>
          9 5 2 2 2.</_></rects>
      <tilted>0</tilted></_>
    <_>
      <rects>
        <_>
          10 0 6 6 -1.</_>
        <_>
          10 3 6 3 2.</_></rects>
      <tilted>0</tilted></_>
    <_>
      <rects>
        <_>
          11 1 2 3 -1.</_>
        <_>
          11 2 2 1 3.</_></rects>
      <tilted>0</tilted></_>
    <_>
      <rects>
        <_>
          11 3 5 14 -1.</_>
        <_>
          11 10 5 7 2.</_></rects>
      <tilted>0</tilted></_>
    <_>
      <rects>
        <_>
          11 4 4 12 -1.</_>
        <_>
          11 10 4 6 2.</_></rects>
      <tilted>0</tilted></_>
    <_>
      <rects>
        <_>
          12 14 4 1 -1.</_>
        <_>
          14 14 2 1 2.</_></rects>
      <tilted>0</tilted></_>
    <_>
      <rects>
        <_>
          13 3 3 12 -1.</_>
        <_>
          13 9 3 6 2.</_></rects>
      <tilted>0</tilted></_>
    <_>
      <rects>
        <_>
          13 10 4 1 -1.</_>
        <_>
          15 10 2 1 2.</_></rects>
      <tilted>0</tilted></_>
    <_>
      <rects>
        <_>
          14 8 2 8 -1.</_>
        <_>
          14 12 2 4 2.</_></rects>
      <tilted>0</tilted></_>
    <_>
      <rects>
        <_>
          14 10 2 5 -1.</_>
        <_>
          15 10 1 5 2.</_></rects>
      <tilted>0</tilted></_>
    <_>
      <rects>
        <_>
          15 7 2 6 -1.</_>
        <_>
          16 7 1 6 2.</_></rects>
      <tilted>0</tilted></_>
    <_>
      <rects>
        <_>
          15 10 2 4 -1.</_>
        <_>
          16 10 1 4 2.</_></rects>
      <tilted>0</tilted></_>
    <_>
      <rects>
        <_>
          15 11 1 4 -1.</_>
        <_>
          15 13 1 2 2.</_></rects>
      <tilted>0</tilted></_>
    <_>
      <rects>
        <_>
          16 9 1 6 -1.</_>
        <_>
          16 12 1 3 2.</_></rects>
      <tilted>0</tilted></_></features></cascade>
</opencv_storage>
