<?xml version="1.0"?>
<opencv_storage>
<cascade>
  <stageType>BOOST</stageType>
  <featureType>HAAR</featureType>
  <height>20</height>
  <width>20</width>
  <stageParams>
    <boostType>GAB</boostType>
    <minHitRate>9.9500000476837158e-01</minHitRate>
    <maxFalseAlarm>5.0000000000000000e-01</maxFalseAlarm>
    <weightTrimRate>9.4999999999999996e-01</weightTrimRate>
    <maxDepth>1</maxDepth>
    <maxWeakCount>100</maxWeakCount></stageParams>
  <featureParams>
    <maxCatCount>0</maxCatCount>
    <featSize>1</featSize>
    <mode>BASIC</mode></featureParams>
  <stageNum>10</stageNum>
  <stages>
    <!-- stage 0 -->
    <_>
      <maxWeakCount>6</maxWeakCount>
      <stageThreshold>-1.2105866670608521e+00</stageThreshold>
      <weakClassifiers>
        <_>
          <internalNodes>
            0 -1 23 3.3673819154500961e-02</internalNodes>
          <leafValues>
            -2.3625843226909637e-01 8.9853829145431519e-01</leafValues></_>
        <_>
          <internalNodes>
            0 -1 36 2.6513116899877787e-03</internalNodes>
          <leafValues>
            -5.6792497634887695e-01 6.2759411334991455e-01</leafValues></_>
        <_>
          <internalNodes>
            0 -1 73 -1.1183249298483133e-03</internalNodes>
          <leafValues>
            5.0401681661605835e-01 -5.6856626272201538e-01</leafValues></_>
        <_>
          <internalNodes>
            0 -1 103 -9.7812730818986893e-03</internalNodes>
          <leafValues>
            6.9385087490081787e-01 -3.6221429705619812e-01</leafValues></_>
        <_>
          <internalNodes>
            0 -1 71 1.0634783655405045e-02</internalNodes>
          <leafValues>
            -2.7712869644165039e-01 7.3824948072433472e-01</leafValues></_>
        <_>
          <internalNodes>
            0 -1 55 -1.3584699481725693e-02</internalNodes>
          <leafValues>
            5.9412562847137451e-01 -3.3329069614410400e-01</leafValues></_></weakClassifiers></_>
    <!-- stage 1 -->
    <_>
      <maxWeakCount>8</maxWeakCount>
      <stageThreshold>-1.2737088203430176e+00</stageThreshold>
      <weakClassifiers>
        <_>
          <internalNodes>
            0 -1 69 2.1999729797244072e-02</internalNodes>
          <leafValues>
            -4.1478130221366882e-01 6.9941443204879761e-01</leafValues></_>
        <_>
          <internalNodes>
            0 -1 9 3.9999503642320633e-02</internalNodes>
          <leafValues>
            -3.3627152442932129e-01 7.5288701057434082e-01</leafValues></_>
        <_>
          <internalNodes>
            0 -1 10 5.5888026952743530e-02</internalNodes>
          <leafValues>
            -5.7541865110397339e-01 4.1201168298721313e-01</leafValues></_>
        <_>
          <internalNodes>
            0 -1 58 4.1682440787553787e-03</internalNodes>
          <leafValues>
            -5.1013594865798950e-01 4.1037622094154358e-01</leafValues></_>
        <_>
          <internalNodes>
            0 -1 29 1.1117035523056984e-02</internalNodes>
          <leafValues>
            -2.7399259805679321e-01 7.2366523742675781e-01</leafValues></_>
        <_>
          <internalNodes>
            0 -1 54 -4.4077374041080475e-03</internalNodes>
          <leafValues>
            -7.3658549785614014e-01 2.6962697505950928e-01</leafValues></_>
        <_>
          <internalNodes>
            0 -1 52 -9.2999320477247238e-03</internalNodes>
          <leafValues>
            6.7682993412017822e-01 -2.7312758564949036e-01</leafValues></_>
        <_>
          <internalNodes>
            0 -1 7 -1.1437658220529556e-02</internalNodes>
          <leafValues>
            4.3872338533401489e-01 -3.5674992203712463e-01</leafValues></_></weakClassifiers></_>
    <!-- stage 2 -->
    <_>
      <maxWeakCount>11</maxWeakCount>
      <stageThreshold>-8.6007481813430786e-01</stageThreshold>
      <weakClassifiers>
        <_>
          <internalNodes>
            0 -1 21 4.8475481569766998e-02</internalNodes>
          <leafValues>
            -1.1725452542304993e-01 8.0191135406494141e-01</leafValues></_>
        <_>
          <internalNodes>
            0 -1 70 8.2647390663623810e-03</internalNodes>
          <leafValues>
            -2.8096783161163330e-01 6.3719505071640015e-01</leafValues></_>
        <_>
          <internalNodes>
            0 -1 49 9.1876983642578125e-03</internalNodes>
          <leafValues>
            -4.6670991182327271e-01 4.3521586060523987e-01</leafValues></_>
        <_>
          <internalNodes>
            0 -1 98 2.9256818816065788e-03</internalNodes>
          <leafValues>
            -3.8254001736640930e-01 4.4212743639945984e-01</leafValues></_>
        <_>
          <internalNodes>
            0 -1 94 7.7940556220710278e-03</internalNodes>
          <leafValues>
            -3.4758627414703369e-01 5.1826745271682739e-01</leafValues></_>
        <_>
          <internalNodes>
            0 -1 12 9.0446814894676208e-02</internalNodes>
          <leafValues>
            -4.3091446161270142e-01 3.6970719695091248e-01</leafValues></_>
        <_>
          <internalNodes>
            0 -1 79 -1.1367667466402054e-02</internalNodes>
          <leafValues>
            6.4654135704040527e-01 -2.6522040367126465e-01</leafValues></_>
        <_>
          <internalNodes>
            0 -1 15 -9.6887052059173584e-03</internalNodes>
          <leafValues>
            6.9715231657028198e-01 -2.0224723219871521e-01</leafValues></_>
        <_>
          <internalNodes>
            0 -1 59 3.0440173577517271e-03</internalNodes>
          <leafValues>
            -2.9027831554412842e-01 5.6369090080261230e-01</leafValues></_>
        <_>
          <internalNodes>
            0 -1 82 -4.3689878657460213e-03</internalNodes>
          <leafValues>
            4.9072644114494324e-01 -2.5706288218498230e-01</leafValues></_>
        <_>
          <internalNodes>
            0 -1 87 9.4108944758772850e-03</internalNodes>
          <leafValues>
            -2.8586679697036743e-01 5.0622826814651489e-01</leafValues></_></weakClassifiers></_>
    <!-- stage 3 -->
    <_>
      <maxWeakCount>12</maxWeakCount>
      <stageThreshold>-9.9417781829833984e-01</stageThreshold>
      <weakClassifiers>
        <_>
          <internalNodes>
            0 -1 72 -7.2002150118350983e-03</internalNodes>
          <leafValues>
            6.4159584045410156e-01 -2.6974666118621826e-01</leafValues></_>
        <_>
          <internalNodes>
            0 -1 16 3.5485334694385529e-02</internalNodes>
          <leafValues>
            -2.8594878315925598e-01 6.1535680294036865e-01</leafValues></_>
        <_>
          <internalNodes>
            0 -1 36 5.2711623720824718e-03</internalNodes>
          <leafValues>
            -4.0672534704208374e-01 3.7584090232849121e-01</leafValues></_>
        <_>
          <internalNodes>
            0 -1 53 1.5726100653409958e-02</internalNodes>
          <leafValues>
            -4.1192883253097534e-01 3.4209519624710083e-01</leafValues></_>
        <_>
          <internalNodes>
            0 -1 78 3.9918869733810425e-03</internalNodes>
          <leafValues>
            -2.8241288661956787e-01 5.0618964433670044e-01</leafValues></_>
        <_>
          <internalNodes>
            0 -1 5 -5.6088678538799286e-03</internalNodes>
          <leafValues>
            4.3405920267105103e-01 -3.8840404152870178e-01</leafValues></_>
        <_>
          <internalNodes>
            0 -1 28 1.3182908296585083e-02</internalNodes>
          <leafValues>
            -2.3968923091888428e-01 6.0295557975769043e-01</leafValues></_>
        <_>
          <internalNodes>
            0 -1 42 1.2803033459931612e-03</internalNodes>
          <leafValues>
            -3.8180133700370789e-01 3.9788913726806641e-01</leafValues></_>
        <_>
          <internalNodes>
            0 -1 60 2.6882616803050041e-02</internalNodes>
          <leafValues>
            -2.7167111635208130e-01 5.7476085424423218e-01</leafValues></_>
        <_>
          <internalNodes>
            0 -1 76 4.0326133370399475e-02</internalNodes>
          <leafValues>
            -2.2678020596504211e-01 5.0612425804138184e-01</leafValues></_>
        <_>
          <internalNodes>
            0 -1 102 1.4682967448607087e-03</internalNodes>
          <leafValues>
            -3.6373135447502136e-01 4.1228899359703064e-01</leafValues></_>
        <_>
          <internalNodes>
            0 -1 46 -5.6318612769246101e-03</internalNodes>
          <leafValues>
            -8.5469543933868408e-01 1.5451548993587494e-01</leafValues></_></weakClassifiers></_>
    <!-- stage 4 -->
    <_>
      <maxWeakCount>11</maxWeakCount>
      <stageThreshold>-1.0328772068023682e+00</stageThreshold>
      <weakClassifiers>
        <_>
          <internalNodes>
            0 -1 47 2.2206048015505075e-03</internalNodes>
          <leafValues>
            -3.3445945382118225e-01 6.2064677476882935e-01</leafValues></_>
        <_>
          <internalNodes>
            0 -1 107 -1.2280595488846302e-02</internalNodes>
          <leafValues>
            6.0292375087738037e-01 -2.6485872268676758e-01</leafValues></_>
        <_>
          <internalNodes>
            0 -1 39 -3.5004483070224524e-03</internalNodes>
          <leafValues>
            -8.6624580621719360e-01 1.9797034561634064e-01</leafValues></_>
        <_>
          <internalNodes>
            0 -1 4 -2.1245725452899933e-02</internalNodes>
          <leafValues>
            5.4857605695724487e-01 -2.6544851064682007e-01</leafValues></_>
        <_>
          <internalNodes>
            0 -1 96 -3.2937084324657917e-03</internalNodes>
          <leafValues>
            -8.2432520389556885e-01 1.2417370080947876e-01</leafValues></_>
        <_>
          <internalNodes>
            0 -1 50 -2.6357066817581654e-03</internalNodes>
          <leafValues>
            2.3780831694602966e-01 -4.8600283265113831e-01</leafValues></_>
        <_>
          <internalNodes>
            0 -1 99 -2.2004088386893272e-03</internalNodes>
          <leafValues>
            2.9550492763519287e-01 -4.1594606637954712e-01</leafValues></_>
        <_>
          <internalNodes>
            0 -1 67 4.2466390877962112e-03</internalNodes>
          <leafValues>
            -2.9890200495719910e-01 4.5139577984809875e-01</leafValues></_>
        <_>
          <internalNodes>
            0 -1 27 -1.2695104815065861e-02</internalNodes>
          <leafValues>
            8.3504998683929443e-01 -1.5869748592376709e-01</leafValues></_>
        <_>
          <internalNodes>
            0 -1 77 9.5583614893257618e-04</internalNodes>
          <leafValues>
            -3.4371060132980347e-01 3.6848762631416321e-01</leafValues></_>
        <_>
          <internalNodes>
            0 -1 13 4.5806029811501503e-03</internalNodes>
          <leafValues>
            -4.9239960312843323e-01 2.5561007857322693e-01</leafValues></_></weakClassifiers></_>
    <!-- stage 5 -->
    <_>
      <maxWeakCount>13</maxWeakCount>
      <stageThreshold>-7.5100195407867432e-01</stageThreshold>
      <weakClassifiers>
        <_>
          <internalNodes>
            0 -1 20 6.3862711191177368e-02</internalNodes>
          <leafValues>
            2.9482072219252586e-02 8.0740737915039062e-01</leafValues></_>
        <_>
          <internalNodes>
            0 -1 41 1.8237103940919042e-03</internalNodes>
          <leafValues>
            -2.9299885034561157e-01 4.9280202388763428e-01</leafValues></_>
        <_>
          <internalNodes>
            0 -1 58 3.9312853477895260e-03</internalNodes>
          <leafValues>
            -4.7911816835403442e-01 2.8540146350860596e-01</leafValues></_>
        <_>
          <internalNodes>
            0 -1 106 -9.9441921338438988e-03</internalNodes>
          <leafValues>
            5.1631426811218262e-01 -2.7441781759262085e-01</leafValues></_>
        <_>
          <internalNodes>
            0 -1 25 1.5848375856876373e-02</internalNodes>
          <leafValues>
            -2.3640863597393036e-01 5.6245297193527222e-01</leafValues></_>
        <_>
          <internalNodes>
            0 -1 26 9.7272861748933792e-03</internalNodes>
          <leafValues>
            -2.2073248028755188e-01 6.8329000473022461e-01</leafValues></_>
        <_>
          <internalNodes>
            0 -1 39 3.8137652445584536e-03</internalNodes>
          <leafValues>
            1.5406087040901184e-01 -9.7470724582672119e-01</leafValues></_>
        <_>
          <internalNodes>
            0 -1 63 -3.7733609788119793e-03</internalNodes>
          <leafValues>
            5.4087823629379272e-01 -2.4898926913738251e-01</leafValues></_>
        <_>
          <internalNodes>
            0 -1 108 1.5156333392951638e-04</internalNodes>
          <leafValues>
            -4.1322892904281616e-01 3.0875569581985474e-01</leafValues></_>
        <_>
          <internalNodes>
            0 -1 3 7.9603698104619980e-03</internalNodes>
          <leafValues>
            -1.8433262407779694e-01 6.2506258487701416e-01</leafValues></_>
        <_>
          <internalNodes>
            0 -1 57 3.8859266787767410e-03</internalNodes>
          <leafValues>
            -2.5250148773193359e-01 4.4734880328178406e-01</leafValues></_>
        <_>
          <internalNodes>
            0 -1 66 7.2755636647343636e-03</internalNodes>
          <leafValues>
            1.5681128203868866e-01 -8.0519598722457886e-01</leafValues></_>
        <_>
          <internalNodes>
            0 -1 101 -1.1620078003033996e-03</internalNodes>
          <leafValues>
            -6.7498248815536499e-01 1.3689310848712921e-01</leafValues></_></weakClassifiers></_>
    <!-- stage 6 -->
    <_>
      <maxWeakCount>12</maxWeakCount>
      <stageThreshold>-8.8327902555465698e-01</stageThreshold>
      <weakClassifiers>
        <_>
          <internalNodes>
            0 -1 61 -3.4739822149276733e-03</internalNodes>
          <leafValues>
            7.0352172851562500e-01 -6.0265578329563141e-02</leafValues></_>
        <_>
          <internalNodes>
            0 -1 89 3.0500479042530060e-03</internalNodes>
          <leafValues>
            -4.6012300252914429e-01 3.6738297343254089e-01</leafValues></_>
        <_>
          <internalNodes>
            0 -1 30 6.6191861405968666e-03</internalNodes>
          <leafValues>
            -3.1205654144287109e-01 4.9970015883445740e-01</leafValues></_>
        <_>
          <internalNodes>
            0 -1 100 -3.4101093187928200e-03</internalNodes>
          <leafValues>
            -8.0029648542404175e-01 1.5698990225791931e-01</leafValues></_>
        <_>
          <internalNodes>
            0 -1 2 4.1815289296209812e-03</internalNodes>
          <leafValues>
            -2.5367185473442078e-01 5.0641900300979614e-01</leafValues></_>
        <_>
          <internalNodes>
            0 -1 97 -6.8293735384941101e-03</internalNodes>
          <leafValues>
            3.7629476189613342e-01 -3.8856419920921326e-01</leafValues></_>
        <_>
          <internalNodes>
            0 -1 94 7.2136074304580688e-03</internalNodes>
          <leafValues>
            -3.0965557694435120e-01 3.9804238080978394e-01</leafValues></_>
        <_>
          <internalNodes>
            0 -1 74 -1.0302576702088118e-03</internalNodes>
          <leafValues>
            2.8546625375747681e-01 -4.3366616964340210e-01</leafValues></_>
        <_>
          <internalNodes>
            0 -1 0 -5.0383485853672028e-02</internalNodes>
          <leafValues>
            -5.6254005432128906e-01 1.9488732516765594e-01</leafValues></_>
        <_>
          <internalNodes>
            0 -1 93 5.6518143974244595e-03</internalNodes>
          <leafValues>
            1.1690808087587357e-01 -7.6346409320831299e-01</leafValues></_>
        <_>
          <internalNodes>
            0 -1 86 -1.3425428420305252e-02</internalNodes>
          <leafValues>
            -8.3780401945114136e-01 7.9321846365928650e-02</leafValues></_>
        <_>
          <internalNodes>
            0 -1 95 3.3565524499863386e-03</internalNodes>
          <leafValues>
            1.2035053223371506e-01 -7.2626847028732300e-01</leafValues></_></weakClassifiers></_>
    <!-- stage 7 -->
    <_>
      <maxWeakCount>15</maxWeakCount>
      <stageThreshold>-1.1471569538116455e+00</stageThreshold>
      <weakClassifiers>
        <_>
          <internalNodes>
            0 -1 18 -3.2271817326545715e-02</internalNodes>
          <leafValues>
            5.9920108318328857e-01 -1.4326646924018860e-01</leafValues></_>
        <_>
          <internalNodes>
            0 -1 34 1.4006958343088627e-02</internalNodes>
          <leafValues>
            -3.0988997220993042e-01 4.2902159690856934e-01</leafValues></_>
        <_>
          <internalNodes>
            0 -1 38 5.1679536700248718e-03</internalNodes>
          <leafValues>
            -2.3049651086330414e-01 5.0934946537017822e-01</leafValues></_>
        <_>
          <internalNodes>
            0 -1 75 -2.6219431310892105e-03</internalNodes>
          <leafValues>
            6.3176304101943970e-01 -1.8960098922252655e-01</leafValues></_>
        <_>
          <internalNodes>
            0 -1 22 -6.8501266650855541e-03</internalNodes>
          <leafValues>
            4.5087721943855286e-01 -2.9059299826622009e-01</leafValues></_>
        <_>
          <internalNodes>
            0 -1 37 9.4531141221523285e-03</internalNodes>
          <leafValues>
            -1.4287951588630676e-01 6.5212357044219971e-01</leafValues></_>
        <_>
          <internalNodes>
            0 -1 80 1.8040906637907028e-02</internalNodes>
          <leafValues>
            -2.1999447047710419e-01 4.8927834630012512e-01</leafValues></_>
        <_>
          <internalNodes>
            0 -1 14 2.3212905507534742e-03</internalNodes>
          <leafValues>
            -1.9264705479145050e-01 5.1087898015975952e-01</leafValues></_>
        <_>
          <internalNodes>
            0 -1 39 -2.1162889897823334e-03</internalNodes>
          <leafValues>
            -6.3540518283843994e-01 1.4746138453483582e-01</leafValues></_>
        <_>
          <internalNodes>
            0 -1 43 5.2277627401053905e-04</internalNodes>
          <leafValues>
            -3.9897170662879944e-01 2.6484739780426025e-01</leafValues></_>
        <_>
          <internalNodes>
            0 -1 62 6.5608212025836110e-05</internalNodes>
          <leafValues>
            -4.1525486111640930e-01 2.6672896742820740e-01</leafValues></_>
        <_>
          <internalNodes>
            0 -1 33 -3.1282668933272362e-03</internalNodes>
          <leafValues>
            5.0724172592163086e-01 -2.1114166080951691e-01</leafValues></_>
        <_>
          <internalNodes>
            0 -1 19 4.3809443013742566e-04</internalNodes>
          <leafValues>
            -2.2642637789249420e-01 4.0261858701705933e-01</leafValues></_>
        <_>
          <internalNodes>
            0 -1 24 -1.1398829519748688e-02</internalNodes>
          <leafValues>
            -6.3281887769699097e-01 1.2732994556427002e-01</leafValues></_>
        <_>
          <internalNodes>
            0 -1 45 -3.8023218512535095e-03</internalNodes>
          <leafValues>
            -8.3382475376129150e-01 8.7262742221355438e-02</leafValues></_></weakClassifiers></_>
    <!-- stage 8 -->
    <_>
      <maxWeakCount>16</maxWeakCount>
      <stageThreshold>-9.9990987777709961e-01</stageThreshold>
      <weakClassifiers>
        <_>
          <internalNodes>
            0 -1 35 6.3320323824882507e-03</internalNodes>
          <leafValues>
            -2.5553318858146667e-01 5.4433351755142212e-01</leafValues></_>
        <_>
          <internalNodes>
            0 -1 65 6.3021638197824359e-04</internalNodes>
          <leafValues>
            -4.8873803019523621e-01 2.7099362015724182e-01</leafValues></_>
        <_>
          <internalNodes>
            0 -1 105 -8.9623974636197090e-03</internalNodes>
          <leafValues>
            3.2303607463836670e-01 -3.9441576600074768e-01</leafValues></_>
        <_>
          <internalNodes>
            0 -1 17 2.6036724448204041e-02</internalNodes>
          <leafValues>
            -3.6140653491020203e-01 3.5614579916000366e-01</leafValues></_>
        <_>
          <internalNodes>
            0 -1 90 1.7381097422912717e-03</internalNodes>
          <leafValues>
            -3.6170953512191772e-01 2.7582290768623352e-01</leafValues></_>
        <_>
          <internalNodes>
            0 -1 56 -3.9083999581634998e-03</internalNodes>
          <leafValues>
            -7.2285413742065430e-01 1.3288334012031555e-01</leafValues></_>
        <_>
          <internalNodes>
            0 -1 99 -2.8397166170179844e-03</internalNodes>
          <leafValues>
            2.3457311093807220e-01 -4.2670190334320068e-01</leafValues></_>
        <_>
          <internalNodes>
            0 -1 1 9.7992448136210442e-03</internalNodes>
          <leafValues>
            -1.8346202373504639e-01 5.4388123750686646e-01</leafValues></_>
        <_>
          <internalNodes>
            0 -1 81 -3.9834767580032349e-02</internalNodes>
          <leafValues>
            -7.3423618078231812e-01 1.4467348158359528e-01</leafValues></_>
        <_>
          <internalNodes>
            0 -1 11 -4.2372271418571472e-03</internalNodes>
          <leafValues>
            4.9070301651954651e-01 -1.9942271709442139e-01</leafValues></_>
        <_>
          <internalNodes>
            0 -1 59 -8.0891223624348640e-03</internalNodes>
          <leafValues>
            7.3801106214523315e-01 -1.2184990942478180e-01</leafValues></_>
        <_>
          <internalNodes>
            0 -1 83 2.7776658535003662e-02</internalNodes>
          <leafValues>
            1.3929989933967590e-01 -8.5684579610824585e-01</leafValues></_>
        <_>
          <internalNodes>
            0 -1 48 4.2034704238176346e-03</internalNodes>
          <leafValues>
            -2.0301076769828796e-01 5.2677255868911743e-01</leafValues></_>
        <_>
          <internalNodes>
            0 -1 67 5.7512652128934860e-03</internalNodes>
          <leafValues>
            -2.3441554605960846e-01 4.9072000384330750e-01</leafValues></_>
        <_>
          <internalNodes>
            0 -1 68 -1.1227377690374851e-03</internalNodes>
          <leafValues>
            2.6771223545074463e-01 -3.8430765271186829e-01</leafValues></_>
        <_>
          <internalNodes>
            0 -1 44 2.6279436424374580e-03</internalNodes>
          <leafValues>
            1.4479947090148926e-01 -7.1079248189926147e-01</leafValues></_></weakClassifiers></_>
    <!-- stage 9 -->
    <_>
      <maxWeakCount>16</maxWeakCount>
      <stageThreshold>-1.0293109416961670e+00</stageThreshold>
      <weakClassifiers>
        <_>
          <internalNodes>
            0 -1 32 3.0173291452229023e-03</internalNodes>
          <leafValues>
            -3.0152672529220581e-01 5.7159906625747681e-01</leafValues></_>
        <_>
          <internalNodes>
            0 -1 61 -6.1005139723420143e-03</internalNodes>
          <leafValues>
            4.6237859129905701e-01 -2.4417766928672791e-01</leafValues></_>
        <_>
          <internalNodes>
            0 -1 94 1.2544574216008186e-02</internalNodes>
          <leafValues>
            -1.9573445618152618e-01 5.4504013061523438e-01</leafValues></_>
        <_>
          <internalNodes>
            0 -1 92 -1.4036355540156364e-02</internalNodes>
          <leafValues>
            3.7588322162628174e-01 -3.8030090928077698e-01</leafValues></_>
        <_>
          <internalNodes>
            0 -1 6 4.5846141874790192e-02</internalNodes>
          <leafValues>
            -3.9148128032684326e-01 3.0478444695472717e-01</leafValues></_>
        <_>
          <internalNodes>
            0 -1 27 1.4459742233157158e-02</internalNodes>
          <leafValues>
            -1.8653322756290436e-01 5.3938484191894531e-01</leafValues></_>
        <_>
          <internalNodes>
            0 -1 88 1.4991587027907372e-02</internalNodes>
          <leafValues>
            -2.0460803806781769e-01 6.2856793403625488e-01</leafValues></_>
        <_>
          <internalNodes>
            0 -1 91 -1.3408346101641655e-02</internalNodes>
          <leafValues>
            4.5446726679801941e-01 -2.3998665809631348e-01</leafValues></_>
        <_>
          <internalNodes>
            0 -1 84 -2.8723143041133881e-03</internalNodes>
          <leafValues>
            4.4165360927581787e-01 -2.1230870485305786e-01</leafValues></_>
        <_>
          <internalNodes>
            0 -1 51 5.0282971933484077e-03</internalNodes>
          <leafValues>
            -2.9393330216407776e-01 3.1482282280921936e-01</leafValues></_>
        <_>
          <internalNodes>
            0 -1 8 -9.0519534423947334e-03</internalNodes>
          <leafValues>
            5.1332843303680420e-01 -1.6972106695175171e-01</leafValues></_>
        <_>
          <internalNodes>
            0 -1 31 -8.1979390233755112e-03</internalNodes>
          <leafValues>
            6.1497038602828979e-01 -1.4766131341457367e-01</leafValues></_>
        <_>
          <internalNodes>
            0 -1 40 -5.5462559685111046e-03</internalNodes>
          <leafValues>
            5.1841819286346436e-01 -1.6918827593326569e-01</leafValues></_>
        <_>
          <internalNodes>
            0 -1 85 1.4837119961157441e-03</internalNodes>
          <leafValues>
            -2.5607696175575256e-01 3.6343804001808167e-01</leafValues></_>
        <_>
          <internalNodes>
            0 -1 64 6.7348475567996502e-03</internalNodes>
          <leafValues>
            -1.5773157775402069e-01 6.2783718109130859e-01</leafValues></_>
        <_>
          <internalNodes>
            0 -1 104 -8.9545443188399076e-05</internalNodes>
          <leafValues>
            -4.2032426595687866e-01 2.3838692903518677e-01</leafValues></_></weakClassifiers></_></stages>
  <features>
    <_>
      <rects>
        <_>
          0 0 20 16 -1.</_>
        <_>
          0 0 10 8 2.</_>
        <_>
          10 8 10 8 2.</_></rects>
      <tilted>0</tilted></_>
    <_>
      <rects>
        <_>
          0 4 2 6 -1.</_>
        <_>
          1 4 1 6 2.</_></rects>
      <tilted>0</tilted></_>
    <_>
      <rects>
        <_>
          0 5 2 3 -1.</_>
        <_>
          1 5 1 3 2.</_></rects>
      <tilted>0</tilted></_>
    <_>
      <rects>
        <_>
          0 5 2 5 -1.</_>
        <_>
          1 5 1 5 2.</_></rects>
      <tilted>0</tilted></_>
    <_>
      <rects>
        <_>
          1 2 6 6 -1.</_>
        <_>
          1 2 3 3 2.</_>
        <_>
          4 5 3 3 2.</_></rects>
      <tilted>0</tilted></_>
    <_>
      <rects>
        <_>
          1 5 1 8 -1.</_>
        <_>
          1 9 1 4 2.</_></rects>
      <tilted>0</tilted></_>
    <_>
      <rects>
        <_>
          1 9 18 4 -1.</_>
        <_>
          10 9 9 4 2.</_></rects>
      <tilted>0</tilted></_>
    <_>
      <rects>
        <_>
          2 1 1 18 -1.</_>
        <_>
          2 10 1 9 2.</_></rects>
      <tilted>0</tilted></_>
    <_>
      <rects>
        <_>
          2 4 4 4 -1.</_>
        <_>
          2 4 2 2 2.</_>
        <_>
          4 6 2 2 2.</_></rects>
      <tilted>0</tilted></_>
    <_>
      <rects>
        <_>
          3 0 14 4 -1.</_>
        <_>
          3 2 14 2 2.</_></rects>
      <tilted>0</tilted></_>
    <_>
      <rects>
        <_>
          3 3 16 15 -1.</_>
        <_>
          11 3 8 15 2.</_></rects>
      <tilted>0</tilted></_>
    <_>
      <rects>
        <_>
          3 4 4 2 -1.</_>
        <_>
          3 4 2 1 2.</_>
        <_>
          5 5 2 1 2.</_></rects>
      <tilted>0</tilted></_>
    <_>
      <rects>
        <_>
          3 8 16 9 -1.</_>
        <_>
          11 8 8 9 2.</_></rects>
      <tilted>0</tilted></_>
    <_>
      <rects>
        <_>
          3 16 16 1 -1.</_>
        <_>
          11 16 8 1 2.</_></rects>
      <tilted>0</tilted></_>
    <_>
      <rects>
        <_>
          4 5 4 2 -1.</_>
        <_>
          4 5 2 1 2.</_>
        <_>
          6 6 2 1 2.</_></rects>
      <tilted>0</tilted></_>
    <_>
      <rects>
        <_>
          4 18 12 2 -1.</_>
        <_>
          4 19 12 1 2.</_></rects>
      <tilted>0</tilted></_>
    <_>
      <rects>
        <_>
          5 0 10 4 -1.</_>
        <_>
          5 2 10 2 2.</_></rects>
      <tilted>0</tilted></_>
    <_>
      <rects>
        <_>
          5 0 13 4 -1.</_>
        <_>
          5 2 13 2 2.</_></rects>
      <tilted>0</tilted></_>
    <_>
      <rects>
        <_>
          5 2 10 6 -1.</_>
        <_>
          5 5 10 3 2.</_></rects>
      <tilted>0</tilted></_>
    <_>
      <rects>
        <_>
          5 16 1 2 -1.</_>
        <_>
          5 17 1 1 2.</_></rects>
      <tilted>0</tilted></_>
    <_>
      <rects>
        <_>
          6 0 8 6 -1.</_>
        <_>
          6 2 8 2 3.</_></rects>
      <tilted>0</tilted></_>
    <_>
      <rects>
        <_>
          6 0 9 6 -1.</_>
        <_>
          6 2 9 2 3.</_></rects>
      <tilted>0</tilted></_>
    <_>
      <rects>
        <_>
          6 18 10 2 -1.</_>
        <_>
          6 18 5 1 2.</_>
        <_>
          11 19 5 1 2.</_></rects>
      <tilted>0</tilted></_>
    <_>
      <rects>
        <_>
          7 0 8 6 -1.</_>
        <_>
          7 2 8 2 3.</_></rects>
      <tilted>0</tilted></_>
    <_>
      <rects>
        <_>
          7 2 6 3 -1.</_>
        <_>
          9 2 2 3 3.</_></rects>
      <tilted>0</tilted></_>
    <_>
      <rects>
        <_>
          7 2 6 3 -1.</_>
        <_>
          7 3 6 1 3.</_></rects>
      <tilted>0</tilted></_>
    <_>
      <rects>
        <_>
          7 3 5 3 -1.</_>
        <_>
          7 4 5 1 3.</_></rects>
      <tilted>0</tilted></_>
    <_>
      <rects>
        <_>
          8 2 4 3 -1.</_>
        <_>
          8 3 4 1 3.</_></rects>
      <tilted>0</tilted></_>
    <_>
      <rects>
        <_>
          8 2 5 3 -1.</_>
        <_>
          8 3 5 1 3.</_></rects>
      <tilted>0</tilted></_>
    <_>
      <rects>
        <_>
          8 3 10 2 -1.</_>
        <_>
          8 3 5 1 2.</_>
        <_>
          13 4 5 1 2.</_></rects>
      <tilted>0</tilted></_>
    <_>
      <rects>
        <_>
          9 1 4 2 -1.</_>
        <_>
          9 2 4 1 2.</_></rects>
      <tilted>0</tilted></_>
    <_>
      <rects>
        <_>
          9 3 6 2 -1.</_>
        <_>
          9 3 3 1 2.</_>
        <_>
          12 4 3 1 2.</_></rects>
      <tilted>0</tilted></_>
    <_>
      <rects>
        <_>
          9 3 6 3 -1.</_>
        <_>
          12 3 3 3 2.</_></rects>
      <tilted>0</tilted></_>
    <_>
      <rects>
        <_>
          9 6 3 2 -1.</_>
        <_>
          9 7 3 1 2.</_></rects>
      <tilted>0</tilted></_>
    <_>
      <rects>
        <_>
          9 9 6 2 -1.</_>
        <_>
          11 9 2 2 3.</_></rects>
      <tilted>0</tilted></_>
    <_>
      <rects>
        <_>
          9 9 6 3 -1.</_>
        <_>
          11 9 2 3 3.</_></rects>
      <tilted>0</tilted></_>
    <_>
      <rects>
        <_>
          9 10 6 1 -1.</_>
        <_>
          11 10 2 1 3.</_></rects>
      <tilted>0</tilted></_>
    <_>
      <rects>
        <_>
          9 16 4 3 -1.</_>
        <_>
          9 17 4 1 3.</_></rects>
      <tilted>0</tilted></_>
    <_>
      <rects>
        <_>
          10 1 2 3 -1.</_>
        <_>
          10 2 2 1 3.</_></rects>
      <tilted>0</tilted></_>
    <_>
      <rects>
        <_>
          10 3 3 2 -1.</_>
        <_>
          11 3 1 2 3.</_></rects>
      <tilted>0</tilted></_>
    <_>
      <rects>
        <_>
          10 3 2 3 -1.</_>
        <_>
          10 4 2 1 3.</_></rects>
      <tilted>0</tilted></_>
    <_>
      <rects>
        <_>
          10 10 2 1 -1.</_>
        <_>
          11 10 1 1 2.</_></rects>
      <tilted>0</tilted></_>
    <_>
      <rects>
        <_>
          10 18 4 1 -1.</_>
        <_>
          12 18 2 1 2.</_></rects>
      <tilted>0</tilted></_>
    <_>
      <rects>
        <_>
          11 2 2 3 -1.</_>
        <_>
          12 2 1 3 2.</_></rects>
      <tilted>0</tilted></_>
    <_>
      <rects>
        <_>
          11 3 2 2 -1.</_>
        <_>
          12 3 1 2 2.</_></rects>
      <tilted>0</tilted></_>
    <_>
      <rects>
        <_>
          11 3 3 2 -1.</_>
        <_>
          12 3 1 2 3.</_></rects>
      <tilted>0</tilted></_>
    <_>
      <rects>
        <_>
          11 3 3 3 -1.</_>
        <_>
          12 3 1 3 3.</_></rects>
      <tilted>0</tilted></_>
    <_>
      <rects>
        <_>
          11 3 4 3 -1.</_>
        <_>
          13 3 2 3 2.</_></rects>
      <tilted>0</tilted></_>
    <_>
      <rects>
        <_>
          11 4 4 2 -1.</_>
        <_>
          11 4 2 1 2.</_>
        <_>
          13 5 2 1 2.</_></rects>
      <tilted>0</tilted></_>
    <_>
      <rects>
        <_>
          11 6 2 9 -1.</_>
        <_>
          11 9 2 3 3.</_></rects>
      <tilted>0</tilted></_>
    <_>
      <rects>
        <_>
          11 9 2 6 -1.</_>
        <_>
          11 12 2 3 2.</_></rects>
      <tilted>0</tilted></_>
    <_>
      <rects>
        <_>
          11 14 6 4 -1.</_>
        <_>
          11 16 6 2 2.</_></rects>
      <tilted>0</tilted></_>
    <_>
      <rects>
        <_>
          11 18 7 2 -1.</_>
        <_>
          11 19 7 1 2.</_></rects>
      <tilted>0</tilted></_>
    <_>
      <rects>
        <_>
          12 1 8 6 -1.</_>
        <_>
          12 1 4 3 2.</_>
        <_>
          16 4 4 3 2.</_></rects>
      <tilted>0</tilted></_>
    <_>
      <rects>
        <_>
          12 2 3 4 -1.</_>
        <_>
          13 2 1 4 3.</_></rects>
      <tilted>0</tilted></_>
    <_>
      <rects>
        <_>
          12 2 4 4 -1.</_>
        <_>
          12 4 4 2 2.</_></rects>
      <tilted>0</tilted></_>
    <_>
      <rects>
        <_>
          12 3 3 2 -1.</_>
        <_>
          13 3 1 2 3.</_></rects>
      <tilted>0</tilted></_>
    <_>
      <rects>
        <_>
          12 3 4 2 -1.</_>
        <_>
          12 3 2 1 2.</_>
        <_>
          14 4 2 1 2.</_></rects>
      <tilted>0</tilted></_>
    <_>
      <rects>
        <_>
          12 3 4 3 -1.</_>
        <_>
          14 3 2 3 2.</_></rects>
      <tilted>0</tilted></_>
    <_>
      <rects>
        <_>
          12 4 4 2 -1.</_>
        <_>
          12 4 2 1 2.</_>
        <_>
          14 5 2 1 2.</_></rects>
      <tilted>0</tilted></_>
    <_>
      <rects>
        <_>
          12 8 6 10 -1.</_>
        <_>
          12 8 3 5 2.</_>
        <_>
          15 13 3 5 2.</_></rects>
      <tilted>0</tilted></_>
    <_>
      <rects>
        <_>
          12 9 3 3 -1.</_>
        <_>
          13 9 1 3 3.</_></rects>
      <tilted>0</tilted></_>
    <_>
      <rects>
        <_>
          12 17 2 1 -1.</_>
        <_>
          13 17 1 1 2.</_></rects>
      <tilted>0</tilted></_>
    <_>
      <rects>
        <_>
          12 18 2 2 -1.</_>
        <_>
          12 19 2 1 2.</_></rects>
      <tilted>0</tilted></_>
    <_>
      <rects>
        <_>
          13 0 2 2 -1.</_>
        <_>
          13 1 2 1 2.</_></rects>
      <tilted>0</tilted></_>
    <_>
      <rects>
        <_>
          13 3 2 3 -1.</_>
        <_>
          14 3 1 3 2.</_></rects>
      <tilted>0</tilted></_>
    <_>
      <rects>
        <_>
          13 4 3 4 -1.</_>
        <_>
          14 4 1 4 3.</_></rects>
      <tilted>0</tilted></_>
    <_>
      <rects>
        <_>
          13 4 4 2 -1.</_>
        <_>
          13 4 2 1 2.</_>
        <_>
          15 5 2 1 2.</_></rects>
      <tilted>0</tilted></_>
    <_>
      <rects>
        <_>
          13 4 6 2 -1.</_>
        <_>
          13 5 6 1 2.</_></rects>
      <tilted>0</tilted></_>
    <_>
      <rects>
        <_>
          13 6 6 9 -1.</_>
        <_>
          16 6 3 9 2.</_></rects>
      <tilted>0</tilted></_>
    <_>
      <rects>
        <_>
          14 3 4 4 -1.</_>
        <_>
          14 3 2 2 2.</_>
        <_>
          16 5 2 2 2.</_></rects>
      <tilted>0</tilted></_>
    <_>
      <rects>
        <_>
          14 4 4 4 -1.</_>
        <_>
          14 4 2 2 2.</_>
        <_>
          16 6 2 2 2.</_></rects>
      <tilted>0</tilted></_>
    <_>
      <rects>
        <_>
          14 4 3 8 -1.</_>
        <_>
          14 8 3 4 2.</_></rects>
      <tilted>0</tilted></_>
    <_>
      <rects>
        <_>
          14 5 3 2 -1.</_>
        <_>
          14 6 3 1 2.</_></rects>
      <tilted>0</tilted></_>
    <_>
      <rects>
        <_>
          14 5 4 2 -1.</_>
        <_>
          14 6 4 1 2.</_></rects>
      <tilted>0</tilted></_>
    <_>
      <rects>
        <_>
          14 6 2 2 -1.</_>
        <_>
          14 6 1 1 2.</_>
        <_>
          15 7 1 1 2.</_></rects>
      <tilted>0</tilted></_>
    <_>
      <rects>
        <_>
          14 6 6 8 -1.</_>
        <_>
          16 6 2 8 3.</_></rects>
      <tilted>0</tilted></_>
    <_>
      <rects>
        <_>
          14 13 2 3 -1.</_>
        <_>
          15 13 1 3 2.</_></rects>
      <tilted>0</tilted></_>
    <_>
      <rects>
        <_>
          14 14 1 6 -1.</_>
        <_>
          14 16 1 2 3.</_></rects>
      <tilted>0</tilted></_>
    <_>
      <rects>
        <_>
          15 2 1 6 -1.</_>
        <_>
          15 5 1 3 2.</_></rects>
      <tilted>0</tilted></_>
    <_>
      <rects>
        <_>
          15 2 4 6 -1.</_>
        <_>
          15 2 2 3 2.</_>
        <_>
          17 5 2 3 2.</_></rects>
      <tilted>0</tilted></_>
    <_>
      <rects>
        <_>
          15 3 2 14 -1.</_>
        <_>
          15 10 2 7 2.</_></rects>
      <tilted>0</tilted></_>
    <_>
      <rects>
        <_>
          15 4 1 4 -1.</_>
        <_>
          15 6 1 2 2.</_></rects>
      <tilted>0</tilted></_>
    <_>
      <rects>
        <_>
          15 4 2 14 -1.</_>
        <_>
          15 11 2 7 2.</_></rects>
      <tilted>0</tilted></_>
    <_>
      <rects>
        <_>
          15 6 2 4 -1.</_>
        <_>
          15 6 1 2 2.</_>
        <_>
          16 8 1 2 2.</_></rects>
      <tilted>0</tilted></_>
    <_>
      <rects>
        <_>
          15 7 4 2 -1.</_>
        <_>
          15 7 2 1 2.</_>
        <_>
          17 8 2 1 2.</_></rects>
      <tilted>0</tilted></_>
    <_>
      <rects>
        <_>
          15 7 3 6 -1.</_>
        <_>
          15 9 3 2 3.</_></rects>
      <tilted>0</tilted></_>
    <_>
      <rects>
        <_>
          15 8 3 5 -1.</_>
        <_>
          16 8 1 5 3.</_></rects>
      <tilted>0</tilted></_>
    <_>
      <rects>
        <_>
          15 8 3 6 -1.</_>
        <_>
          16 8 1 6 3.</_></rects>
      <tilted>0</tilted></_>
    <_>
      <rects>
        <_>
          15 9 4 3 -1.</_>
        <_>
          17 9 2 3 2.</_></rects>
      <tilted>0</tilted></_>
    <_>
      <rects>
        <_>
          15 12 2 3 -1.</_>
        <_>
          16 12 1 3 2.</_></rects>
      <tilted>0</tilted></_>
    <_>
      <rects>
        <_>
          15 12 4 8 -1.</_>
        <_>
          15 12 2 4 2.</_>
        <_>
          17 16 2 4 2.</_></rects>
      <tilted>0</tilted></_>
    <_>
      <rects>
        <_>
          16 4 2 12 -1.</_>
        <_>
          16 8 2 4 3.</_></rects>
      <tilted>0</tilted></_>
    <_>
      <rects>
        <_>
          16 8 4 3 -1.</_>
        <_>
          16 9 4 1 3.</_></rects>
      <tilted>0</tilted></_>
    <_>
      <rects>
        <_>
          16 9 3 3 -1.</_>
        <_>
          17 9 1 3 3.</_></rects>
      <tilted>0</tilted></_>
    <_>
      <rects>
        <_>
          16 9 3 3 -1.</_>
        <_>
          16 10 3 1 3.</_></rects>
      <tilted>0</tilted></_>
    <_>
      <rects>
        <_>
          16 10 2 3 -1.</_>
        <_>
          16 11 2 1 3.</_></rects>
      <tilted>0</tilted></_>
    <_>
      <rects>
        <_>
          17 6 2 6 -1.</_>
        <_>
          17 9 2 3 2.</_></rects>
      <tilted>0</tilted></_>
    <_>
      <rects>
        <_>
          17 7 3 2 -1.</_>
        <_>
          18 7 1 2 3.</_></rects>
      <tilted>0</tilted></_>
    <_>
      <rects>
        <_>
          17 7 2 4 -1.</_>
        <_>
          17 9 2 2 2.</_></rects>
      <tilted>0</tilted></_>
    <_>
      <rects>
        <_>
          17 8 2 3 -1.</_>
        <_>
          17 9 2 1 3.</_></rects>
      <tilted>0</tilted></_>
    <_>
      <rects>
        <_>
          17 9 1 3 -1.</_>
        <_>
          17 10 1 1 3.</_></rects>
      <tilted>0</tilted></_>
    <_>
      <rects>
        <_>
          17 12 3 1 -1.</_>
        <_>
          18 12 1 1 3.</_></rects>
      <tilted>0</tilted></_>
    <_>
      <rects>
        <_>
          18 5 2 7 -1.</_>
        <_>
          19 5 1 7 2.</_></rects>
      <tilted>0</tilted></_>
    <_>
      <rects>
        <_>
          18 6 1 3 -1.</_>
        <_>
          18 7 1 1 3.</_></rects>
      <tilted>0</tilted></_>
    <_>
      <rects>
        <_>
          18 6 2 9 -1.</_>
        <_>
          19 6 1 9 2.</_></rects>
      <tilted>0</tilted></_>
    <_>
      <rects>
        <_>
          18 8 2 4 -1.</_>
        <_>
          19 8 1 4 2.</_></rects>
      <tilted>0</tilted></_>
    <_>
      <rects>
        <_>
          18 8 2 6 -1.</_>
        <_>
          19 8 1 6 2.</_></rects>
      <tilted>0</tilted></_>
    <_>
      <rects>
        <_>
          18 11 1 6 -1.</_>
        <_>
          18 13 1 2 3.</_></rects>
      <tilted>0</tilted></_></features></cascade>
</opencv_storage>
