<?xml version="1.0"?>
<opencv_storage>
<stage9>
  <maxWeakCount>17</maxWeakCount>
  <stageThreshold>-7.2509616613388062e-01</stageThreshold>
  <weakClassifiers>
    <_>
      <internalNodes>
        0 -1 42459 -4.1475621983408928e-03</internalNodes>
      <leafValues>
        4.8956468701362610e-01 -2.8605201840400696e-01</leafValues></_>
    <_>
      <internalNodes>
        0 -1 1977 6.9798603653907776e-03</internalNodes>
      <leafValues>
        -2.0135200023651123e-01 4.2329749464988708e-01</leafValues></_>
    <_>
      <internalNodes>
        0 -1 68452 2.1277826454024762e-04</internalNodes>
      <leafValues>
        -4.8094153404235840e-01 1.7367403209209442e-01</leafValues></_>
    <_>
      <internalNodes>
        0 -1 65473 7.3534981347620487e-03</internalNodes>
      <leafValues>
        1.1863215267658234e-01 -6.4222949743270874e-01</leafValues></_>
    <_>
      <internalNodes>
        0 -1 69724 -4.3542493134737015e-02</internalNodes>
      <leafValues>
        -7.9508477449417114e-01 7.8073516488075256e-02</leafValues></_>
    <_>
      <internalNodes>
        0 -1 41392 1.0559535585343838e-03</internalNodes>
      <leafValues>
        -3.6635541915893555e-01 2.0160758495330811e-01</leafValues></_>
    <_>
      <internalNodes>
        0 -1 41748 -6.2664231518283486e-04</internalNodes>
      <leafValues>
        2.3007453978061676e-01 -3.4454199671745300e-01</leafValues></_>
    <_>
      <internalNodes>
        0 -1 55133 -2.0233949180692434e-03</internalNodes>
      <leafValues>
        4.3722036480903625e-01 -2.3138037323951721e-01</leafValues></_>
    <_>
      <internalNodes>
        0 -1 76254 2.1441275253891945e-02</internalNodes>
      <leafValues>
        -1.3149422407150269e-01 5.2636164426803589e-01</leafValues></_>
    <_>
      <internalNodes>
        0 -1 74687 -2.3483560653403401e-04</internalNodes>
      <leafValues>
        -6.4461165666580200e-01 1.1074516922235489e-01</leafValues></_>
    <_>
      <internalNodes>
        0 -1 16210 1.0185018181800842e-02</internalNodes>
      <leafValues>
        -1.6090646386146545e-01 5.1962453126907349e-01</leafValues></_>
    <_>
      <internalNodes>
        0 -1 40705 1.1209113523364067e-02</internalNodes>
      <leafValues>
        -1.7023074626922607e-01 5.8441954851150513e-01</leafValues></_>
    <_>
      <internalNodes>
        0 -1 53697 -2.3698939476162195e-03</internalNodes>
      <leafValues>
        4.3552026152610779e-01 -1.7710116505622864e-01</leafValues></_>
    <_>
      <internalNodes>
        0 -1 74845 4.2033270001411438e-03</internalNodes>
      <leafValues>
        1.0801685601472855e-01 -8.3349680900573730e-01</leafValues></_>
    <_>
      <internalNodes>
        0 -1 36816 -2.0924467593431473e-02</internalNodes>
      <leafValues>
        4.1555291414260864e-01 -1.9042019546031952e-01</leafValues></_>
    <_>
      <internalNodes>
        0 -1 36707 2.7307765558362007e-03</internalNodes>
      <leafValues>
        1.1319569498300552e-01 -6.8989646434783936e-01</leafValues></_>
    <_>
      <internalNodes>
        0 -1 31170 -2.9159535188227892e-03</internalNodes>
      <leafValues>
        -9.4853001832962036e-01 5.6784261018037796e-02</leafValues></_></weakClassifiers></stage9>
</opencv_storage>
