<?xml version="1.0"?>
<opencv_storage>
<stage5>
  <maxWeakCount>12</maxWeakCount>
  <stageThreshold>-5.7166314125061035e-01</stageThreshold>
  <weakClassifiers>
    <_>
      <internalNodes>
        0 -1 31174 -2.6802276261150837e-04</internalNodes>
      <leafValues>
        5.1048088073730469e-01 -2.6778241991996765e-01</leafValues></_>
    <_>
      <internalNodes>
        0 -1 75460 6.7559974268078804e-03</internalNodes>
      <leafValues>
        -1.7583122849464417e-01 6.1899399757385254e-01</leafValues></_>
    <_>
      <internalNodes>
        0 -1 46887 5.0782505422830582e-03</internalNodes>
      <leafValues>
        1.2330073863267899e-01 -9.4754564762115479e-01</leafValues></_>
    <_>
      <internalNodes>
        0 -1 73240 3.4927215892821550e-04</internalNodes>
      <leafValues>
        -4.1446706652641296e-01 2.2443579137325287e-01</leafValues></_>
    <_>
      <internalNodes>
        0 -1 30839 -1.7596164718270302e-02</internalNodes>
      <leafValues>
        -8.0771094560623169e-01 1.0731818526983261e-01</leafValues></_>
    <_>
      <internalNodes>
        0 -1 42459 -3.0663944780826569e-03</internalNodes>
      <leafValues>
        1.3748617470264435e-01 -6.2030977010726929e-01</leafValues></_>
    <_>
      <internalNodes>
        0 -1 72103 -2.3938581347465515e-02</internalNodes>
      <leafValues>
        -8.4382212162017822e-01 1.1062471568584442e-01</leafValues></_>
    <_>
      <internalNodes>
        0 -1 63830 3.2188899815082550e-02</internalNodes>
      <leafValues>
        5.7948224246501923e-02 -8.2672077417373657e-01</leafValues></_>
    <_>
      <internalNodes>
        0 -1 25216 -1.0615822859108448e-02</internalNodes>
      <leafValues>
        -7.9663074016571045e-01 1.0716792196035385e-01</leafValues></_>
    <_>
      <internalNodes>
        0 -1 37113 2.8397657442837954e-03</internalNodes>
      <leafValues>
        8.5405632853507996e-02 -9.3381935358047485e-01</leafValues></_>
    <_>
      <internalNodes>
        0 -1 36857 -9.7819846123456955e-03</internalNodes>
      <leafValues>
        -8.5501843690872192e-01 8.7053507566452026e-02</leafValues></_>
    <_>
      <internalNodes>
        0 -1 53284 6.8363286554813385e-03</internalNodes>
      <leafValues>
        -2.5376126170158386e-01 3.9401760697364807e-01</leafValues></_></weakClassifiers></stage5>
</opencv_storage>
