<?xml version="1.0"?>
<opencv_storage>
<stage2>
  <maxWeakCount>9</maxWeakCount>
  <stageThreshold>-9.5003831386566162e-01</stageThreshold>
  <weakClassifiers>
    <_>
      <internalNodes>
        0 -1 36806 -7.2554411599412560e-04</internalNodes>
      <leafValues>
        5.4252201318740845e-01 -5.6962025165557861e-01</leafValues></_>
    <_>
      <internalNodes>
        0 -1 70210 7.8618675470352173e-03</internalNodes>
      <leafValues>
        -4.1678872704505920e-01 3.7755361199378967e-01</leafValues></_>
    <_>
      <internalNodes>
        0 -1 42594 5.2915178239345551e-03</internalNodes>
      <leafValues>
        2.0367547869682312e-01 -9.4567239284515381e-01</leafValues></_>
    <_>
      <internalNodes>
        0 -1 25764 -3.9869442116469145e-04</internalNodes>
      <leafValues>
        2.8605514764785767e-01 -4.9151799082756042e-01</leafValues></_>
    <_>
      <internalNodes>
        0 -1 52001 -2.4858536198735237e-03</internalNodes>
      <leafValues>
        -8.6676400899887085e-01 1.5424740314483643e-01</leafValues></_>
    <_>
      <internalNodes>
        0 -1 56055 -3.5019405186176300e-03</internalNodes>
      <leafValues>
        -8.0284625291824341e-01 1.4362528920173645e-01</leafValues></_>
    <_>
      <internalNodes>
        0 -1 69724 -4.5585088431835175e-02</internalNodes>
      <leafValues>
        -9.1942548751831055e-01 1.2039921432733536e-01</leafValues></_>
    <_>
      <internalNodes>
        0 -1 59199 2.2023558616638184e-02</internalNodes>
      <leafValues>
        -2.4467904865741730e-01 6.6726243495941162e-01</leafValues></_>
    <_>
      <internalNodes>
        0 -1 76039 5.6669041514396667e-03</internalNodes>
      <leafValues>
        1.5062035620212555e-01 -9.1395533084869385e-01</leafValues></_></weakClassifiers></stage2>
</opencv_storage>
