<?xml version="1.0"?>
<opencv_storage>
<cascade>
  <stageType>BOOST</stageType>
  <featureType>HAAR</featureType>
  <height>20</height>
  <width>20</width>
  <stageParams>
    <boostType>GAB</boostType>
    <minHitRate>9.9500000476837158e-01</minHitRate>
    <maxFalseAlarm>5.0000000000000000e-01</maxFalseAlarm>
    <weightTrimRate>9.4999999999999996e-01</weightTrimRate>
    <maxDepth>1</maxDepth>
    <maxWeakCount>100</maxWeakCount></stageParams>
  <featureParams>
    <maxCatCount>0</maxCatCount>
    <featSize>1</featSize>
    <mode>BASIC</mode></featureParams>
  <stageNum>10</stageNum>
  <stages>
    <!-- stage 0 -->
    <_>
      <maxWeakCount>6</maxWeakCount>
      <stageThreshold>-1.1346120834350586e+00</stageThreshold>
      <weakClassifiers>
        <_>
          <internalNodes>
            0 -1 44 -1.1855362914502621e-02</internalNodes>
          <leafValues>
            7.6969695091247559e-01 -7.2032523155212402e-01</leafValues></_>
        <_>
          <internalNodes>
            0 -1 95 3.1540729105472565e-04</internalNodes>
          <leafValues>
            -5.8092027902603149e-01 4.0181383490562439e-01</leafValues></_>
        <_>
          <internalNodes>
            0 -1 104 -6.9464015541598201e-04</internalNodes>
          <leafValues>
            3.8151785731315613e-01 -5.7262957096099854e-01</leafValues></_>
        <_>
          <internalNodes>
            0 -1 15 -3.6966669722460210e-04</internalNodes>
          <leafValues>
            3.7242534756660461e-01 -5.2704381942749023e-01</leafValues></_>
        <_>
          <internalNodes>
            0 -1 75 3.4500425681471825e-04</internalNodes>
          <leafValues>
            -5.3413081169128418e-01 3.1005585193634033e-01</leafValues></_>
        <_>
          <internalNodes>
            0 -1 67 -9.6825300715863705e-04</internalNodes>
          <leafValues>
            3.1948286294937134e-01 -5.3377127647399902e-01</leafValues></_></weakClassifiers></_>
    <!-- stage 1 -->
    <_>
      <maxWeakCount>7</maxWeakCount>
      <stageThreshold>-6.2884366512298584e-01</stageThreshold>
      <weakClassifiers>
        <_>
          <internalNodes>
            0 -1 54 -7.8467875719070435e-03</internalNodes>
          <leafValues>
            5.8362990617752075e-01 -6.8599033355712891e-01</leafValues></_>
        <_>
          <internalNodes>
            0 -1 94 -9.4566334155388176e-05</internalNodes>
          <leafValues>
            -7.7291995286941528e-01 3.0873963236808777e-01</leafValues></_>
        <_>
          <internalNodes>
            0 -1 19 -2.5274984072893858e-03</internalNodes>
          <leafValues>
            3.7209975719451904e-01 -5.2940571308135986e-01</leafValues></_>
        <_>
          <internalNodes>
            0 -1 56 -2.0376034080982208e-02</internalNodes>
          <leafValues>
            -8.8956761360168457e-01 1.7303681373596191e-01</leafValues></_>
        <_>
          <internalNodes>
            0 -1 30 8.3230242133140564e-02</internalNodes>
          <leafValues>
            -2.4106360971927643e-01 8.5486614704132080e-01</leafValues></_>
        <_>
          <internalNodes>
            0 -1 98 4.2108050547540188e-03</internalNodes>
          <leafValues>
            1.8819859623908997e-01 -9.0062302350997925e-01</leafValues></_>
        <_>
          <internalNodes>
            0 -1 51 -1.8766487482935190e-03</internalNodes>
          <leafValues>
            -8.8561815023422241e-01 1.5764094889163971e-01</leafValues></_></weakClassifiers></_>
    <!-- stage 2 -->
    <_>
      <maxWeakCount>9</maxWeakCount>
      <stageThreshold>-9.5003831386566162e-01</stageThreshold>
      <weakClassifiers>
        <_>
          <internalNodes>
            0 -1 35 -7.2554411599412560e-04</internalNodes>
          <leafValues>
            5.4252201318740845e-01 -5.6962025165557861e-01</leafValues></_>
        <_>
          <internalNodes>
            0 -1 79 7.8618675470352173e-03</internalNodes>
          <leafValues>
            -4.1678872704505920e-01 3.7755361199378967e-01</leafValues></_>
        <_>
          <internalNodes>
            0 -1 46 5.2915178239345551e-03</internalNodes>
          <leafValues>
            2.0367547869682312e-01 -9.4567239284515381e-01</leafValues></_>
        <_>
          <internalNodes>
            0 -1 17 -3.9869442116469145e-04</internalNodes>
          <leafValues>
            2.8605514764785767e-01 -4.9151799082756042e-01</leafValues></_>
        <_>
          <internalNodes>
            0 -1 60 -2.4858536198735237e-03</internalNodes>
          <leafValues>
            -8.6676400899887085e-01 1.5424740314483643e-01</leafValues></_>
        <_>
          <internalNodes>
            0 -1 66 -3.5019405186176300e-03</internalNodes>
          <leafValues>
            -8.0284625291824341e-01 1.4362528920173645e-01</leafValues></_>
        <_>
          <internalNodes>
            0 -1 77 -4.5585088431835175e-02</internalNodes>
          <leafValues>
            -9.1942548751831055e-01 1.2039921432733536e-01</leafValues></_>
        <_>
          <internalNodes>
            0 -1 69 2.2023558616638184e-02</internalNodes>
          <leafValues>
            -2.4467904865741730e-01 6.6726243495941162e-01</leafValues></_>
        <_>
          <internalNodes>
            0 -1 103 5.6669041514396667e-03</internalNodes>
          <leafValues>
            1.5062035620212555e-01 -9.1395533084869385e-01</leafValues></_></weakClassifiers></_>
    <!-- stage 3 -->
    <_>
      <maxWeakCount>11</maxWeakCount>
      <stageThreshold>-7.4529701471328735e-01</stageThreshold>
      <weakClassifiers>
        <_>
          <internalNodes>
            0 -1 22 -7.9974217806011438e-04</internalNodes>
          <leafValues>
            6.3318777084350586e-01 -2.3415978252887726e-01</leafValues></_>
        <_>
          <internalNodes>
            0 -1 76 2.5761162396520376e-04</internalNodes>
          <leafValues>
            -5.6392830610275269e-01 3.5720562934875488e-01</leafValues></_>
        <_>
          <internalNodes>
            0 -1 28 -5.2671888843178749e-03</internalNodes>
          <leafValues>
            -9.3287938833236694e-01 1.4185327291488647e-01</leafValues></_>
        <_>
          <internalNodes>
            0 -1 55 -2.2184969857335091e-03</internalNodes>
          <leafValues>
            1.9565770030021667e-01 -6.2370860576629639e-01</leafValues></_>
        <_>
          <internalNodes>
            0 -1 95 3.8012478034943342e-04</internalNodes>
          <leafValues>
            -5.9827667474746704e-01 2.2832310199737549e-01</leafValues></_>
        <_>
          <internalNodes>
            0 -1 1 3.8107454776763916e-02</internalNodes>
          <leafValues>
            -2.4372912943363190e-01 6.4285111427307129e-01</leafValues></_>
        <_>
          <internalNodes>
            0 -1 61 1.7034548800438643e-03</internalNodes>
          <leafValues>
            1.4457805454730988e-01 -8.6547529697418213e-01</leafValues></_>
        <_>
          <internalNodes>
            0 -1 13 -5.3273839876055717e-04</internalNodes>
          <leafValues>
            2.9541701078414917e-01 -4.0625923871994019e-01</leafValues></_>
        <_>
          <internalNodes>
            0 -1 26 -2.4008208420127630e-03</internalNodes>
          <leafValues>
            2.7152532339096069e-01 -4.7249132394790649e-01</leafValues></_>
        <_>
          <internalNodes>
            0 -1 53 7.4069164693355560e-03</internalNodes>
          <leafValues>
            -2.7241909503936768e-01 4.6686339378356934e-01</leafValues></_>
        <_>
          <internalNodes>
            0 -1 65 2.5913813151419163e-03</internalNodes>
          <leafValues>
            1.6697840392589569e-01 -8.3174610137939453e-01</leafValues></_></weakClassifiers></_>
    <!-- stage 4 -->
    <_>
      <maxWeakCount>12</maxWeakCount>
      <stageThreshold>-8.2566434144973755e-01</stageThreshold>
      <weakClassifiers>
        <_>
          <internalNodes>
            0 -1 70 -1.6772658564150333e-03</internalNodes>
          <leafValues>
            5.1468861103057861e-01 -4.4221106171607971e-01</leafValues></_>
        <_>
          <internalNodes>
            0 -1 32 -2.3385518579743803e-04</internalNodes>
          <leafValues>
            3.7699884176254272e-01 -3.9214140176773071e-01</leafValues></_>
        <_>
          <internalNodes>
            0 -1 18 5.1738560199737549e-02</internalNodes>
          <leafValues>
            -2.5986039638519287e-01 5.9256643056869507e-01</leafValues></_>
        <_>
          <internalNodes>
            0 -1 87 9.5239258371293545e-04</internalNodes>
          <leafValues>
            -3.9040648937225342e-01 3.2644653320312500e-01</leafValues></_>
        <_>
          <internalNodes>
            0 -1 9 -1.5894680982455611e-03</internalNodes>
          <leafValues>
            4.4332173466682434e-01 -3.4298315644264221e-01</leafValues></_>
        <_>
          <internalNodes>
            0 -1 89 2.3186216130852699e-03</internalNodes>
          <leafValues>
            2.1133697032928467e-01 -7.8821301460266113e-01</leafValues></_>
        <_>
          <internalNodes>
            0 -1 91 1.1486448056530207e-04</internalNodes>
          <leafValues>
            -4.6065419912338257e-01 2.4093158543109894e-01</leafValues></_>
        <_>
          <internalNodes>
            0 -1 24 5.0644231960177422e-03</internalNodes>
          <leafValues>
            1.0806827247142792e-01 -8.2299816608428955e-01</leafValues></_>
        <_>
          <internalNodes>
            0 -1 29 3.8910761475563049e-02</internalNodes>
          <leafValues>
            1.0494234412908554e-01 -8.2902574539184570e-01</leafValues></_>
        <_>
          <internalNodes>
            0 -1 97 2.6514437049627304e-03</internalNodes>
          <leafValues>
            9.5971412956714630e-02 -8.7257927656173706e-01</leafValues></_>
        <_>
          <internalNodes>
            0 -1 8 -3.3798731863498688e-02</internalNodes>
          <leafValues>
            -8.9855337142944336e-01 8.6322329938411713e-02</leafValues></_>
        <_>
          <internalNodes>
            0 -1 81 -2.0300734322518110e-03</internalNodes>
          <leafValues>
            -8.7763833999633789e-01 8.6810812354087830e-02</leafValues></_></weakClassifiers></_>
    <!-- stage 5 -->
    <_>
      <maxWeakCount>12</maxWeakCount>
      <stageThreshold>-5.7166314125061035e-01</stageThreshold>
      <weakClassifiers>
        <_>
          <internalNodes>
            0 -1 22 -2.6802276261150837e-04</internalNodes>
          <leafValues>
            5.1048088073730469e-01 -2.6778241991996765e-01</leafValues></_>
        <_>
          <internalNodes>
            0 -1 99 6.7559974268078804e-03</internalNodes>
          <leafValues>
            -1.7583122849464417e-01 6.1899399757385254e-01</leafValues></_>
        <_>
          <internalNodes>
            0 -1 52 5.0782505422830582e-03</internalNodes>
          <leafValues>
            1.2330073863267899e-01 -9.4754564762115479e-01</leafValues></_>
        <_>
          <internalNodes>
            0 -1 89 3.4927215892821550e-04</internalNodes>
          <leafValues>
            -4.1446706652641296e-01 2.2443579137325287e-01</leafValues></_>
        <_>
          <internalNodes>
            0 -1 20 -1.7596164718270302e-02</internalNodes>
          <leafValues>
            -8.0771094560623169e-01 1.0731818526983261e-01</leafValues></_>
        <_>
          <internalNodes>
            0 -1 45 -3.0663944780826569e-03</internalNodes>
          <leafValues>
            1.3748617470264435e-01 -6.2030977010726929e-01</leafValues></_>
        <_>
          <internalNodes>
            0 -1 83 -2.3938581347465515e-02</internalNodes>
          <leafValues>
            -8.4382212162017822e-01 1.1062471568584442e-01</leafValues></_>
        <_>
          <internalNodes>
            0 -1 72 3.2188899815082550e-02</internalNodes>
          <leafValues>
            5.7948224246501923e-02 -8.2672077417373657e-01</leafValues></_>
        <_>
          <internalNodes>
            0 -1 12 -1.0615822859108448e-02</internalNodes>
          <leafValues>
            -7.9663074016571045e-01 1.0716792196035385e-01</leafValues></_>
        <_>
          <internalNodes>
            0 -1 38 2.8397657442837954e-03</internalNodes>
          <leafValues>
            8.5405632853507996e-02 -9.3381935358047485e-01</leafValues></_>
        <_>
          <internalNodes>
            0 -1 37 -9.7819846123456955e-03</internalNodes>
          <leafValues>
            -8.5501843690872192e-01 8.7053507566452026e-02</leafValues></_>
        <_>
          <internalNodes>
            0 -1 62 6.8363286554813385e-03</internalNodes>
          <leafValues>
            -2.5376126170158386e-01 3.9401760697364807e-01</leafValues></_></weakClassifiers></_>
    <!-- stage 6 -->
    <_>
      <maxWeakCount>17</maxWeakCount>
      <stageThreshold>-9.1327035427093506e-01</stageThreshold>
      <weakClassifiers>
        <_>
          <internalNodes>
            0 -1 23 -5.3846125956624746e-04</internalNodes>
          <leafValues>
            5.2765691280364990e-01 -3.0346232652664185e-01</leafValues></_>
        <_>
          <internalNodes>
            0 -1 95 6.4966129139065742e-04</internalNodes>
          <leafValues>
            -5.4764682054519653e-01 2.7256861329078674e-01</leafValues></_>
        <_>
          <internalNodes>
            0 -1 7 2.7285452932119370e-02</internalNodes>
          <leafValues>
            -2.2834232449531555e-01 5.4839670658111572e-01</leafValues></_>
        <_>
          <internalNodes>
            0 -1 107 1.8034507520496845e-03</internalNodes>
          <leafValues>
            8.6848057806491852e-02 -8.8881915807723999e-01</leafValues></_>
        <_>
          <internalNodes>
            0 -1 84 1.3974702451378107e-03</internalNodes>
          <leafValues>
            -2.2469954192638397e-01 4.2033106088638306e-01</leafValues></_>
        <_>
          <internalNodes>
            0 -1 14 -1.4828001148998737e-03</internalNodes>
          <leafValues>
            2.9582282900810242e-01 -3.1151422858238220e-01</leafValues></_>
        <_>
          <internalNodes>
            0 -1 82 2.5276942178606987e-02</internalNodes>
          <leafValues>
            1.0021055489778519e-01 -9.1304028034210205e-01</leafValues></_>
        <_>
          <internalNodes>
            0 -1 42 2.8056830167770386e-02</internalNodes>
          <leafValues>
            6.2406308948993683e-02 -9.0057730674743652e-01</leafValues></_>
        <_>
          <internalNodes>
            0 -1 3 -1.2752566253766418e-03</internalNodes>
          <leafValues>
            4.3665501475334167e-01 -2.1199156343936920e-01</leafValues></_>
        <_>
          <internalNodes>
            0 -1 11 8.0266911536455154e-03</internalNodes>
          <leafValues>
            -1.3945208489894867e-01 6.0049277544021606e-01</leafValues></_>
        <_>
          <internalNodes>
            0 -1 50 -4.2511811479926109e-03</internalNodes>
          <leafValues>
            3.1165885925292969e-01 -2.9904517531394958e-01</leafValues></_>
        <_>
          <internalNodes>
            0 -1 40 -2.3505998775362968e-02</internalNodes>
          <leafValues>
            -7.2459971904754639e-01 1.3646844029426575e-01</leafValues></_>
        <_>
          <internalNodes>
            0 -1 2 1.5409737825393677e-02</internalNodes>
          <leafValues>
            -1.6864311695098877e-01 5.6023222208023071e-01</leafValues></_>
        <_>
          <internalNodes>
            0 -1 68 -1.3758765999227762e-03</internalNodes>
          <leafValues>
            5.1907706260681152e-01 -1.5153044462203979e-01</leafValues></_>
        <_>
          <internalNodes>
            0 -1 28 3.2014364842325449e-03</internalNodes>
          <leafValues>
            1.1908872425556183e-01 -7.8304034471511841e-01</leafValues></_>
        <_>
          <internalNodes>
            0 -1 25 -2.7514733374118805e-03</internalNodes>
          <leafValues>
            -4.9190250039100647e-01 1.5952832996845245e-01</leafValues></_>
        <_>
          <internalNodes>
            0 -1 88 3.7721515400335193e-04</internalNodes>
          <leafValues>
            -3.4836998581886292e-01 2.4143707752227783e-01</leafValues></_></weakClassifiers></_>
    <!-- stage 7 -->
    <_>
      <maxWeakCount>17</maxWeakCount>
      <stageThreshold>-8.8897716999053955e-01</stageThreshold>
      <weakClassifiers>
        <_>
          <internalNodes>
            0 -1 34 -7.8841188224032521e-04</internalNodes>
          <leafValues>
            4.8688048124313354e-01 -3.5064935684204102e-01</leafValues></_>
        <_>
          <internalNodes>
            0 -1 86 3.8564563728868961e-03</internalNodes>
          <leafValues>
            -3.0823510885238647e-01 4.1667446494102478e-01</leafValues></_>
        <_>
          <internalNodes>
            0 -1 58 3.1590857543051243e-03</internalNodes>
          <leafValues>
            1.6028296947479248e-01 -6.3955461978912354e-01</leafValues></_>
        <_>
          <internalNodes>
            0 -1 74 6.7489745561033487e-04</internalNodes>
          <leafValues>
            -3.6628255248069763e-01 2.5843513011932373e-01</leafValues></_>
        <_>
          <internalNodes>
            0 -1 108 -9.9655403755605221e-04</internalNodes>
          <leafValues>
            2.4675764143466949e-01 -3.9235562086105347e-01</leafValues></_>
        <_>
          <internalNodes>
            0 -1 90 2.1229393780231476e-02</internalNodes>
          <leafValues>
            -1.6835659742355347e-01 5.9706002473831177e-01</leafValues></_>
        <_>
          <internalNodes>
            0 -1 5 1.5112411230802536e-02</internalNodes>
          <leafValues>
            -1.9645714759826660e-01 4.9966454505920410e-01</leafValues></_>
        <_>
          <internalNodes>
            0 -1 4 7.3481341823935509e-03</internalNodes>
          <leafValues>
            -2.0866627991199493e-01 4.6083489060401917e-01</leafValues></_>
        <_>
          <internalNodes>
            0 -1 17 -8.7403238285332918e-04</internalNodes>
          <leafValues>
            3.2906544208526611e-01 -2.5848272442817688e-01</leafValues></_>
        <_>
          <internalNodes>
            0 -1 59 -1.8235739553347230e-03</internalNodes>
          <leafValues>
            1.6851608455181122e-01 -5.1002007722854614e-01</leafValues></_>
        <_>
          <internalNodes>
            0 -1 96 -1.2459334917366505e-02</internalNodes>
          <leafValues>
            -7.8180062770843506e-01 1.0635509341955185e-01</leafValues></_>
        <_>
          <internalNodes>
            0 -1 52 -4.6365018934011459e-03</internalNodes>
          <leafValues>
            -8.8668996095657349e-01 7.7542878687381744e-02</leafValues></_>
        <_>
          <internalNodes>
            0 -1 78 1.1383489472791553e-03</internalNodes>
          <leafValues>
            -2.1625818312168121e-01 4.2386740446090698e-01</leafValues></_>
        <_>
          <internalNodes>
            0 -1 103 1.4050967292860150e-03</internalNodes>
          <leafValues>
            1.4849369227886200e-01 -5.9417188167572021e-01</leafValues></_>
        <_>
          <internalNodes>
            0 -1 101 -1.0794762521982193e-02</internalNodes>
          <leafValues>
            -9.2252695560455322e-01 8.6353495717048645e-02</leafValues></_>
        <_>
          <internalNodes>
            0 -1 93 1.6314480453729630e-03</internalNodes>
          <leafValues>
            -2.8198960423469543e-01 2.8508064150810242e-01</leafValues></_>
        <_>
          <internalNodes>
            0 -1 105 -1.0725053958594799e-02</internalNodes>
          <leafValues>
            5.6319367885589600e-01 -1.6305182874202728e-01</leafValues></_></weakClassifiers></_>
    <!-- stage 8 -->
    <_>
      <maxWeakCount>18</maxWeakCount>
      <stageThreshold>-8.0670541524887085e-01</stageThreshold>
      <weakClassifiers>
        <_>
          <internalNodes>
            0 -1 92 9.4455201178789139e-04</internalNodes>
          <leafValues>
            4.8986487090587616e-02 7.0087337493896484e-01</leafValues></_>
        <_>
          <internalNodes>
            0 -1 27 -5.7651597307994962e-04</internalNodes>
          <leafValues>
            3.5515698790550232e-01 -3.2806715369224548e-01</leafValues></_>
        <_>
          <internalNodes>
            0 -1 10 8.3844335749745369e-03</internalNodes>
          <leafValues>
            -1.7647615075111389e-01 4.7699528932571411e-01</leafValues></_>
        <_>
          <internalNodes>
            0 -1 85 1.0390349198132753e-03</internalNodes>
          <leafValues>
            -2.3447211086750031e-01 3.4612706303596497e-01</leafValues></_>
        <_>
          <internalNodes>
            0 -1 71 1.4387845993041992e-02</internalNodes>
          <leafValues>
            1.1164808273315430e-01 -7.5011479854583740e-01</leafValues></_>
        <_>
          <internalNodes>
            0 -1 91 1.5702883247286081e-03</internalNodes>
          <leafValues>
            8.5570082068443298e-02 -8.1646180152893066e-01</leafValues></_>
        <_>
          <internalNodes>
            0 -1 80 2.6045639533549547e-03</internalNodes>
          <leafValues>
            9.5649816095829010e-02 -6.9477945566177368e-01</leafValues></_>
        <_>
          <internalNodes>
            0 -1 47 -1.1953957378864288e-02</internalNodes>
          <leafValues>
            -7.8083974123001099e-01 9.3905545771121979e-02</leafValues></_>
        <_>
          <internalNodes>
            0 -1 100 -3.5878915339708328e-02</internalNodes>
          <leafValues>
            4.8416239023208618e-01 -1.8268582224845886e-01</leafValues></_>
        <_>
          <internalNodes>
            0 -1 109 6.8458635360002518e-04</internalNodes>
          <leafValues>
            -2.4180054664611816e-01 3.2011595368385315e-01</leafValues></_>
        <_>
          <internalNodes>
            0 -1 84 8.8416226208209991e-04</internalNodes>
          <leafValues>
            -2.1625621616840363e-01 3.4446537494659424e-01</leafValues></_>
        <_>
          <internalNodes>
            0 -1 31 -3.0209817923605442e-03</internalNodes>
          <leafValues>
            4.8236566781997681e-01 -1.6437454521656036e-01</leafValues></_>
        <_>
          <internalNodes>
            0 -1 57 -2.1612746641039848e-03</internalNodes>
          <leafValues>
            -6.5730315446853638e-01 1.2850126624107361e-01</leafValues></_>
        <_>
          <internalNodes>
            0 -1 16 1.6333400271832943e-03</internalNodes>
          <leafValues>
            1.0837057977914810e-01 -6.0418689250946045e-01</leafValues></_>
        <_>
          <internalNodes>
            0 -1 28 -5.2510853856801987e-03</internalNodes>
          <leafValues>
            -9.1099321842193604e-01 7.4049256742000580e-02</leafValues></_>
        <_>
          <internalNodes>
            0 -1 48 1.0096896439790726e-02</internalNodes>
          <leafValues>
            -1.8785916268825531e-01 4.6256983280181885e-01</leafValues></_>
        <_>
          <internalNodes>
            0 -1 49 -1.2471094727516174e-02</internalNodes>
          <leafValues>
            5.1106345653533936e-01 -1.6303914785385132e-01</leafValues></_>
        <_>
          <internalNodes>
            0 -1 102 -1.8238888587802649e-03</internalNodes>
          <leafValues>
            -8.8616472482681274e-01 9.7759120166301727e-02</leafValues></_></weakClassifiers></_>
    <!-- stage 9 -->
    <_>
      <maxWeakCount>17</maxWeakCount>
      <stageThreshold>-7.2509616613388062e-01</stageThreshold>
      <weakClassifiers>
        <_>
          <internalNodes>
            0 -1 45 -4.1475621983408928e-03</internalNodes>
          <leafValues>
            4.8956468701362610e-01 -2.8605201840400696e-01</leafValues></_>
        <_>
          <internalNodes>
            0 -1 0 6.9798603653907776e-03</internalNodes>
          <leafValues>
            -2.0135200023651123e-01 4.2329749464988708e-01</leafValues></_>
        <_>
          <internalNodes>
            0 -1 76 2.1277826454024762e-04</internalNodes>
          <leafValues>
            -4.8094153404235840e-01 1.7367403209209442e-01</leafValues></_>
        <_>
          <internalNodes>
            0 -1 73 7.3534981347620487e-03</internalNodes>
          <leafValues>
            1.1863215267658234e-01 -6.4222949743270874e-01</leafValues></_>
        <_>
          <internalNodes>
            0 -1 77 -4.3542493134737015e-02</internalNodes>
          <leafValues>
            -7.9508477449417114e-01 7.8073516488075256e-02</leafValues></_>
        <_>
          <internalNodes>
            0 -1 41 1.0559535585343838e-03</internalNodes>
          <leafValues>
            -3.6635541915893555e-01 2.0160758495330811e-01</leafValues></_>
        <_>
          <internalNodes>
            0 -1 43 -6.2664231518283486e-04</internalNodes>
          <leafValues>
            2.3007453978061676e-01 -3.4454199671745300e-01</leafValues></_>
        <_>
          <internalNodes>
            0 -1 64 -2.0233949180692434e-03</internalNodes>
          <leafValues>
            4.3722036480903625e-01 -2.3138037323951721e-01</leafValues></_>
        <_>
          <internalNodes>
            0 -1 106 2.1441275253891945e-02</internalNodes>
          <leafValues>
            -1.3149422407150269e-01 5.2636164426803589e-01</leafValues></_>
        <_>
          <internalNodes>
            0 -1 94 -2.3483560653403401e-04</internalNodes>
          <leafValues>
            -6.4461165666580200e-01 1.1074516922235489e-01</leafValues></_>
        <_>
          <internalNodes>
            0 -1 6 1.0185018181800842e-02</internalNodes>
          <leafValues>
            -1.6090646386146545e-01 5.1962453126907349e-01</leafValues></_>
        <_>
          <internalNodes>
            0 -1 39 1.1209113523364067e-02</internalNodes>
          <leafValues>
            -1.7023074626922607e-01 5.8441954851150513e-01</leafValues></_>
        <_>
          <internalNodes>
            0 -1 63 -2.3698939476162195e-03</internalNodes>
          <leafValues>
            4.3552026152610779e-01 -1.7710116505622864e-01</leafValues></_>
        <_>
          <internalNodes>
            0 -1 98 4.2033270001411438e-03</internalNodes>
          <leafValues>
            1.0801685601472855e-01 -8.3349680900573730e-01</leafValues></_>
        <_>
          <internalNodes>
            0 -1 36 -2.0924467593431473e-02</internalNodes>
          <leafValues>
            4.1555291414260864e-01 -1.9042019546031952e-01</leafValues></_>
        <_>
          <internalNodes>
            0 -1 33 2.7307765558362007e-03</internalNodes>
          <leafValues>
            1.1319569498300552e-01 -6.8989646434783936e-01</leafValues></_>
        <_>
          <internalNodes>
            0 -1 21 -2.9159535188227892e-03</internalNodes>
          <leafValues>
            -9.4853001832962036e-01 5.6784261018037796e-02</leafValues></_></weakClassifiers></_></stages>
  <features>
    <_>
      <rects>
        <_>
          0 2 12 2 -1.</_>
        <_>
          0 3 12 1 2.</_></rects>
      <tilted>0</tilted></_>
    <_>
      <rects>
        <_>
          0 3 10 3 -1.</_>
        <_>
          5 3 5 3 2.</_></rects>
      <tilted>0</tilted></_>
    <_>
      <rects>
        <_>
          1 4 4 5 -1.</_>
        <_>
          3 4 2 5 2.</_></rects>
      <tilted>0</tilted></_>
    <_>
      <rects>
        <_>
          1 10 3 1 -1.</_>
        <_>
          2 10 1 1 3.</_></rects>
      <tilted>0</tilted></_>
    <_>
      <rects>
        <_>
          1 17 13 2 -1.</_>
        <_>
          1 18 13 1 2.</_></rects>
      <tilted>0</tilted></_>
    <_>
      <rects>
        <_>
          2 1 5 8 -1.</_>
        <_>
          2 5 5 4 2.</_></rects>
      <tilted>0</tilted></_>
    <_>
      <rects>
        <_>
          2 2 6 4 -1.</_>
        <_>
          2 2 3 2 2.</_>
        <_>
          5 4 3 2 2.</_></rects>
      <tilted>0</tilted></_>
    <_>
      <rects>
        <_>
          2 3 18 1 -1.</_>
        <_>
          8 3 6 1 3.</_></rects>
      <tilted>0</tilted></_>
    <_>
      <rects>
        <_>
          2 7 16 3 -1.</_>
        <_>
          10 7 8 3 2.</_></rects>
      <tilted>0</tilted></_>
    <_>
      <rects>
        <_>
          2 8 2 2 -1.</_>
        <_>
          3 8 1 2 2.</_></rects>
      <tilted>0</tilted></_>
    <_>
      <rects>
        <_>
          3 0 4 6 -1.</_>
        <_>
          3 0 2 3 2.</_>
        <_>
          5 3 2 3 2.</_></rects>
      <tilted>0</tilted></_>
    <_>
      <rects>
        <_>
          3 2 8 2 -1.</_>
        <_>
          3 2 4 1 2.</_>
        <_>
          7 3 4 1 2.</_></rects>
      <tilted>0</tilted></_>
    <_>
      <rects>
        <_>
          3 6 7 3 -1.</_>
        <_>
          3 7 7 1 3.</_></rects>
      <tilted>0</tilted></_>
    <_>
      <rects>
        <_>
          3 7 2 1 -1.</_>
        <_>
          4 7 1 1 2.</_></rects>
      <tilted>0</tilted></_>
    <_>
      <rects>
        <_>
          3 7 2 2 -1.</_>
        <_>
          4 7 1 2 2.</_></rects>
      <tilted>0</tilted></_>
    <_>
      <rects>
        <_>
          3 7 4 1 -1.</_>
        <_>
          5 7 2 1 2.</_></rects>
      <tilted>0</tilted></_>
    <_>
      <rects>
        <_>
          3 7 8 1 -1.</_>
        <_>
          7 7 4 1 2.</_></rects>
      <tilted>0</tilted></_>
    <_>
      <rects>
        <_>
          3 8 2 1 -1.</_>
        <_>
          4 8 1 1 2.</_></rects>
      <tilted>0</tilted></_>
    <_>
      <rects>
        <_>
          4 0 12 6 -1.</_>
        <_>
          4 3 12 3 2.</_></rects>
      <tilted>0</tilted></_>
    <_>
      <rects>
        <_>
          4 5 2 4 -1.</_>
        <_>
          4 7 2 2 2.</_></rects>
      <tilted>0</tilted></_>
    <_>
      <rects>
        <_>
          4 5 6 4 -1.</_>
        <_>
          7 5 3 4 2.</_></rects>
      <tilted>0</tilted></_>
    <_>
      <rects>
        <_>
          4 6 1 2 -1.</_>
        <_>
          4 7 1 1 2.</_></rects>
      <tilted>0</tilted></_>
    <_>
      <rects>
        <_>
          4 6 2 2 -1.</_>
        <_>
          5 6 1 2 2.</_></rects>
      <tilted>0</tilted></_>
    <_>
      <rects>
        <_>
          4 6 2 2 -1.</_>
        <_>
          4 7 2 1 2.</_></rects>
      <tilted>0</tilted></_>
    <_>
      <rects>
        <_>
          4 6 6 2 -1.</_>
        <_>
          6 6 2 2 3.</_></rects>
      <tilted>0</tilted></_>
    <_>
      <rects>
        <_>
          4 6 8 1 -1.</_>
        <_>
          8 6 4 1 2.</_></rects>
      <tilted>0</tilted></_>
    <_>
      <rects>
        <_>
          4 6 8 2 -1.</_>
        <_>
          4 7 8 1 2.</_></rects>
      <tilted>0</tilted></_>
    <_>
      <rects>
        <_>
          4 7 3 1 -1.</_>
        <_>
          5 7 1 1 3.</_></rects>
      <tilted>0</tilted></_>
    <_>
      <rects>
        <_>
          4 7 6 1 -1.</_>
        <_>
          7 7 3 1 2.</_></rects>
      <tilted>0</tilted></_>
    <_>
      <rects>
        <_>
          4 7 14 2 -1.</_>
        <_>
          11 7 7 2 2.</_></rects>
      <tilted>0</tilted></_>
    <_>
      <rects>
        <_>
          5 0 11 6 -1.</_>
        <_>
          5 3 11 3 2.</_></rects>
      <tilted>0</tilted></_>
    <_>
      <rects>
        <_>
          5 3 2 2 -1.</_>
        <_>
          5 4 2 1 2.</_></rects>
      <tilted>0</tilted></_>
    <_>
      <rects>
        <_>
          5 5 2 1 -1.</_>
        <_>
          6 5 1 1 2.</_></rects>
      <tilted>0</tilted></_>
    <_>
      <rects>
        <_>
          5 5 4 1 -1.</_>
        <_>
          7 5 2 1 2.</_></rects>
      <tilted>0</tilted></_>
    <_>
      <rects>
        <_>
          5 5 3 2 -1.</_>
        <_>
          5 6 3 1 2.</_></rects>
      <tilted>0</tilted></_>
    <_>
      <rects>
        <_>
          5 5 4 2 -1.</_>
        <_>
          5 6 4 1 2.</_></rects>
      <tilted>0</tilted></_>
    <_>
      <rects>
        <_>
          5 5 4 6 -1.</_>
        <_>
          5 8 4 3 2.</_></rects>
      <tilted>0</tilted></_>
    <_>
      <rects>
        <_>
          5 5 5 3 -1.</_>
        <_>
          5 6 5 1 3.</_></rects>
      <tilted>0</tilted></_>
    <_>
      <rects>
        <_>
          5 6 4 1 -1.</_>
        <_>
          7 6 2 1 2.</_></rects>
      <tilted>0</tilted></_>
    <_>
      <rects>
        <_>
          6 1 7 3 -1.</_>
        <_>
          6 2 7 1 3.</_></rects>
      <tilted>0</tilted></_>
    <_>
      <rects>
        <_>
          6 3 2 6 -1.</_>
        <_>
          6 6 2 3 2.</_></rects>
      <tilted>0</tilted></_>
    <_>
      <rects>
        <_>
          6 3 4 4 -1.</_>
        <_>
          8 3 2 4 2.</_></rects>
      <tilted>0</tilted></_>
    <_>
      <rects>
        <_>
          6 3 6 4 -1.</_>
        <_>
          9 3 3 4 2.</_></rects>
      <tilted>0</tilted></_>
    <_>
      <rects>
        <_>
          6 4 1 2 -1.</_>
        <_>
          6 5 1 1 2.</_></rects>
      <tilted>0</tilted></_>
    <_>
      <rects>
        <_>
          6 4 8 4 -1.</_>
        <_>
          6 6 8 2 2.</_></rects>
      <tilted>0</tilted></_>
    <_>
      <rects>
        <_>
          6 5 8 2 -1.</_>
        <_>
          6 6 8 1 2.</_></rects>
      <tilted>0</tilted></_>
    <_>
      <rects>
        <_>
          6 6 4 2 -1.</_>
        <_>
          8 6 2 2 2.</_></rects>
      <tilted>0</tilted></_>
    <_>
      <rects>
        <_>
          6 6 12 4 -1.</_>
        <_>
          12 6 6 4 2.</_></rects>
      <tilted>0</tilted></_>
    <_>
      <rects>
        <_>
          6 11 6 2 -1.</_>
        <_>
          8 11 2 2 3.</_></rects>
      <tilted>0</tilted></_>
    <_>
      <rects>
        <_>
          6 11 6 4 -1.</_>
        <_>
          8 11 2 4 3.</_></rects>
      <tilted>0</tilted></_>
    <_>
      <rects>
        <_>
          7 2 2 4 -1.</_>
        <_>
          7 4 2 2 2.</_></rects>
      <tilted>0</tilted></_>
    <_>
      <rects>
        <_>
          7 4 2 3 -1.</_>
        <_>
          8 4 1 3 2.</_></rects>
      <tilted>0</tilted></_>
    <_>
      <rects>
        <_>
          7 4 3 4 -1.</_>
        <_>
          8 4 1 4 3.</_></rects>
      <tilted>0</tilted></_>
    <_>
      <rects>
        <_>
          7 4 6 3 -1.</_>
        <_>
          10 4 3 3 2.</_></rects>
      <tilted>0</tilted></_>
    <_>
      <rects>
        <_>
          7 4 6 4 -1.</_>
        <_>
          7 6 6 2 2.</_></rects>
      <tilted>0</tilted></_>
    <_>
      <rects>
        <_>
          7 4 7 2 -1.</_>
        <_>
          7 5 7 1 2.</_></rects>
      <tilted>0</tilted></_>
    <_>
      <rects>
        <_>
          7 5 10 5 -1.</_>
        <_>
          12 5 5 5 2.</_></rects>
      <tilted>0</tilted></_>
    <_>
      <rects>
        <_>
          8 3 4 1 -1.</_>
        <_>
          10 3 2 1 2.</_></rects>
      <tilted>0</tilted></_>
    <_>
      <rects>
        <_>
          8 3 6 1 -1.</_>
        <_>
          11 3 3 1 2.</_></rects>
      <tilted>0</tilted></_>
    <_>
      <rects>
        <_>
          8 4 6 2 -1.</_>
        <_>
          8 5 6 1 2.</_></rects>
      <tilted>0</tilted></_>
    <_>
      <rects>
        <_>
          8 5 3 2 -1.</_>
        <_>
          9 5 1 2 3.</_></rects>
      <tilted>0</tilted></_>
    <_>
      <rects>
        <_>
          8 6 2 2 -1.</_>
        <_>
          9 6 1 2 2.</_></rects>
      <tilted>0</tilted></_>
    <_>
      <rects>
        <_>
          8 9 3 6 -1.</_>
        <_>
          8 11 3 2 3.</_></rects>
      <tilted>0</tilted></_>
    <_>
      <rects>
        <_>
          8 11 4 1 -1.</_>
        <_>
          10 11 2 1 2.</_></rects>
      <tilted>0</tilted></_>
    <_>
      <rects>
        <_>
          9 1 3 2 -1.</_>
        <_>
          9 2 3 1 2.</_></rects>
      <tilted>0</tilted></_>
    <_>
      <rects>
        <_>
          9 4 3 2 -1.</_>
        <_>
          10 4 1 2 3.</_></rects>
      <tilted>0</tilted></_>
    <_>
      <rects>
        <_>
          9 4 3 3 -1.</_>
        <_>
          10 4 1 3 3.</_></rects>
      <tilted>0</tilted></_>
    <_>
      <rects>
        <_>
          9 4 3 2 -1.</_>
        <_>
          9 5 3 1 2.</_></rects>
      <tilted>0</tilted></_>
    <_>
      <rects>
        <_>
          9 11 2 1 -1.</_>
        <_>
          10 11 1 1 2.</_></rects>
      <tilted>0</tilted></_>
    <_>
      <rects>
        <_>
          10 1 5 4 -1.</_>
        <_>
          10 3 5 2 2.</_></rects>
      <tilted>0</tilted></_>
    <_>
      <rects>
        <_>
          10 4 1 4 -1.</_>
        <_>
          10 6 1 2 2.</_></rects>
      <tilted>0</tilted></_>
    <_>
      <rects>
        <_>
          11 3 4 14 -1.</_>
        <_>
          11 10 4 7 2.</_></rects>
      <tilted>0</tilted></_>
    <_>
      <rects>
        <_>
          11 4 7 12 -1.</_>
        <_>
          11 10 7 6 2.</_></rects>
      <tilted>0</tilted></_>
    <_>
      <rects>
        <_>
          11 14 6 1 -1.</_>
        <_>
          14 14 3 1 2.</_></rects>
      <tilted>0</tilted></_>
    <_>
      <rects>
        <_>
          11 15 4 1 -1.</_>
        <_>
          13 15 2 1 2.</_></rects>
      <tilted>0</tilted></_>
    <_>
      <rects>
        <_>
          12 13 4 3 -1.</_>
        <_>
          14 13 2 3 2.</_></rects>
      <tilted>0</tilted></_>
    <_>
      <rects>
        <_>
          12 14 4 1 -1.</_>
        <_>
          14 14 2 1 2.</_></rects>
      <tilted>0</tilted></_>
    <_>
      <rects>
        <_>
          13 4 3 12 -1.</_>
        <_>
          13 10 3 6 2.</_></rects>
      <tilted>0</tilted></_>
    <_>
      <rects>
        <_>
          13 6 3 1 -1.</_>
        <_>
          14 6 1 1 3.</_></rects>
      <tilted>0</tilted></_>
    <_>
      <rects>
        <_>
          13 7 4 7 -1.</_>
        <_>
          15 7 2 7 2.</_></rects>
      <tilted>0</tilted></_>
    <_>
      <rects>
        <_>
          13 13 3 2 -1.</_>
        <_>
          14 13 1 2 3.</_></rects>
      <tilted>0</tilted></_>
    <_>
      <rects>
        <_>
          13 14 3 1 -1.</_>
        <_>
          14 14 1 1 3.</_></rects>
      <tilted>0</tilted></_>
    <_>
      <rects>
        <_>
          14 4 2 12 -1.</_>
        <_>
          14 8 2 4 3.</_></rects>
      <tilted>0</tilted></_>
    <_>
      <rects>
        <_>
          14 4 2 10 -1.</_>
        <_>
          14 9 2 5 2.</_></rects>
      <tilted>0</tilted></_>
    <_>
      <rects>
        <_>
          14 6 3 1 -1.</_>
        <_>
          15 6 1 1 3.</_></rects>
      <tilted>0</tilted></_>
    <_>
      <rects>
        <_>
          14 10 2 2 -1.</_>
        <_>
          14 11 2 1 2.</_></rects>
      <tilted>0</tilted></_>
    <_>
      <rects>
        <_>
          14 10 6 1 -1.</_>
        <_>
          16 10 2 1 3.</_></rects>
      <tilted>0</tilted></_>
    <_>
      <rects>
        <_>
          14 11 2 4 -1.</_>
        <_>
          15 11 1 4 2.</_></rects>
      <tilted>0</tilted></_>
    <_>
      <rects>
        <_>
          14 12 2 2 -1.</_>
        <_>
          15 12 1 2 2.</_></rects>
      <tilted>0</tilted></_>
    <_>
      <rects>
        <_>
          14 13 2 2 -1.</_>
        <_>
          15 13 1 2 2.</_></rects>
      <tilted>0</tilted></_>
    <_>
      <rects>
        <_>
          14 13 6 3 -1.</_>
        <_>
          17 13 3 3 2.</_></rects>
      <tilted>0</tilted></_>
    <_>
      <rects>
        <_>
          14 14 2 1 -1.</_>
        <_>
          15 14 1 1 2.</_></rects>
      <tilted>0</tilted></_>
    <_>
      <rects>
        <_>
          15 5 2 2 -1.</_>
        <_>
          15 5 1 1 2.</_>
        <_>
          16 6 1 1 2.</_></rects>
      <tilted>0</tilted></_>
    <_>
      <rects>
        <_>
          15 7 3 2 -1.</_>
        <_>
          16 7 1 2 3.</_></rects>
      <tilted>0</tilted></_>
    <_>
      <rects>
        <_>
          15 9 2 4 -1.</_>
        <_>
          16 9 1 4 2.</_></rects>
      <tilted>0</tilted></_>
    <_>
      <rects>
        <_>
          15 9 2 5 -1.</_>
        <_>
          16 9 1 5 2.</_></rects>
      <tilted>0</tilted></_>
    <_>
      <rects>
        <_>
          15 9 2 6 -1.</_>
        <_>
          15 12 2 3 2.</_></rects>
      <tilted>0</tilted></_>
    <_>
      <rects>
        <_>
          15 11 1 4 -1.</_>
        <_>
          15 13 1 2 2.</_></rects>
      <tilted>0</tilted></_>
    <_>
      <rects>
        <_>
          15 11 2 3 -1.</_>
        <_>
          16 11 1 3 2.</_></rects>
      <tilted>0</tilted></_>
    <_>
      <rects>
        <_>
          16 2 1 6 -1.</_>
        <_>
          16 5 1 3 2.</_></rects>
      <tilted>0</tilted></_>
    <_>
      <rects>
        <_>
          16 4 4 12 -1.</_>
        <_>
          18 4 2 12 2.</_></rects>
      <tilted>0</tilted></_>
    <_>
      <rects>
        <_>
          16 6 1 8 -1.</_>
        <_>
          16 10 1 4 2.</_></rects>
      <tilted>0</tilted></_>
    <_>
      <rects>
        <_>
          16 7 1 2 -1.</_>
        <_>
          16 8 1 1 2.</_></rects>
      <tilted>0</tilted></_>
    <_>
      <rects>
        <_>
          16 7 1 8 -1.</_>
        <_>
          16 11 1 4 2.</_></rects>
      <tilted>0</tilted></_>
    <_>
      <rects>
        <_>
          16 9 1 6 -1.</_>
        <_>
          16 12 1 3 2.</_></rects>
      <tilted>0</tilted></_>
    <_>
      <rects>
        <_>
          16 9 4 8 -1.</_>
        <_>
          16 9 2 4 2.</_>
        <_>
          18 13 2 4 2.</_></rects>
      <tilted>0</tilted></_>
    <_>
      <rects>
        <_>
          16 9 4 10 -1.</_>
        <_>
          16 9 2 5 2.</_>
        <_>
          18 14 2 5 2.</_></rects>
      <tilted>0</tilted></_>
    <_>
      <rects>
        <_>
          16 10 1 4 -1.</_>
        <_>
          16 12 1 2 2.</_></rects>
      <tilted>0</tilted></_>
    <_>
      <rects>
        <_>
          17 8 1 6 -1.</_>
        <_>
          17 11 1 3 2.</_></rects>
      <tilted>0</tilted></_>
    <_>
      <rects>
        <_>
          17 12 2 2 -1.</_>
        <_>
          18 12 1 2 2.</_></rects>
      <tilted>0</tilted></_></features></cascade>
</opencv_storage>
