<?xml version="1.0"?>
<opencv_storage>
<cascade>
  <stageType>BOOST</stageType>
  <featureType>HAAR</featureType>
  <height>20</height>
  <width>20</width>
  <stageParams>
    <boostType>GAB</boostType>
    <minHitRate>9.9500000476837158e-01</minHitRate>
    <maxFalseAlarm>5.0000000000000000e-01</maxFalseAlarm>
    <weightTrimRate>9.4999999999999996e-01</weightTrimRate>
    <maxDepth>1</maxDepth>
    <maxWeakCount>100</maxWeakCount></stageParams>
  <featureParams>
    <maxCatCount>0</maxCatCount>
    <featSize>1</featSize>
    <mode>BASIC</mode></featureParams>
  <stageNum>8</stageNum>
  <stages>
    <!-- stage 0 -->
    <_>
      <maxWeakCount>2</maxWeakCount>
      <stageThreshold>-2.4394592642784119e-01</stageThreshold>
      <weakClassifiers>
        <_>
          <internalNodes>
            0 -1 28 1.2036591768264771e-02</internalNodes>
          <leafValues>
            -9.1496598720550537e-01 8.1878304481506348e-01</leafValues></_>
        <_>
          <internalNodes>
            0 -1 26 -6.2923450022935867e-03</internalNodes>
          <leafValues>
            6.7102003097534180e-01 -8.5712140798568726e-01</leafValues></_></weakClassifiers></_>
    <!-- stage 1 -->
    <_>
      <maxWeakCount>2</maxWeakCount>
      <stageThreshold>-9.1257631778717041e-02</stageThreshold>
      <weakClassifiers>
        <_>
          <internalNodes>
            0 -1 4 4.1285526007413864e-02</internalNodes>
          <leafValues>
            -7.1516078710556030e-01 8.0649620294570923e-01</leafValues></_>
        <_>
          <internalNodes>
            0 -1 7 -1.1890543624758720e-02</internalNodes>
          <leafValues>
            6.2390315532684326e-01 -7.9234057664871216e-01</leafValues></_></weakClassifiers></_>
    <!-- stage 2 -->
    <_>
      <maxWeakCount>4</maxWeakCount>
      <stageThreshold>-1.2319763898849487e+00</stageThreshold>
      <weakClassifiers>
        <_>
          <internalNodes>
            0 -1 30 4.6770557761192322e-02</internalNodes>
          <leafValues>
            -5.7163530588150024e-01 7.7714693546295166e-01</leafValues></_>
        <_>
          <internalNodes>
            0 -1 11 -7.1142595261335373e-03</internalNodes>
          <leafValues>
            7.1905195713043213e-01 -6.3847857713699341e-01</leafValues></_>
        <_>
          <internalNodes>
            0 -1 31 -1.8928162753582001e-02</internalNodes>
          <leafValues>
            5.6611013412475586e-01 -6.7970752716064453e-01</leafValues></_>
        <_>
          <internalNodes>
            0 -1 20 2.8152866289019585e-03</internalNodes>
          <leafValues>
            -6.9093716144561768e-01 5.0989145040512085e-01</leafValues></_></weakClassifiers></_>
    <!-- stage 3 -->
    <_>
      <maxWeakCount>5</maxWeakCount>
      <stageThreshold>-7.0542085170745850e-01</stageThreshold>
      <weakClassifiers>
        <_>
          <internalNodes>
            0 -1 29 -1.3210220262408257e-02</internalNodes>
          <leafValues>
            7.2375690937042236e-01 -5.3374230861663818e-01</leafValues></_>
        <_>
          <internalNodes>
            0 -1 20 3.2470459118485451e-03</internalNodes>
          <leafValues>
            -6.2095570564270020e-01 5.8848643302917480e-01</leafValues></_>
        <_>
          <internalNodes>
            0 -1 15 -4.5089229941368103e-02</internalNodes>
          <leafValues>
            6.5126985311508179e-01 -5.1944011449813843e-01</leafValues></_>
        <_>
          <internalNodes>
            0 -1 5 1.4645995106548071e-03</internalNodes>
          <leafValues>
            -8.7090033292770386e-01 3.3961182832717896e-01</leafValues></_>
        <_>
          <internalNodes>
            0 -1 16 1.1165931820869446e-02</internalNodes>
          <leafValues>
            -4.4173672795295715e-01 6.2910544872283936e-01</leafValues></_></weakClassifiers></_>
    <!-- stage 4 -->
    <_>
      <maxWeakCount>5</maxWeakCount>
      <stageThreshold>-1.1487441062927246e+00</stageThreshold>
      <weakClassifiers>
        <_>
          <internalNodes>
            0 -1 24 6.0149999335408211e-03</internalNodes>
          <leafValues>
            -6.4444446563720703e-01 6.3489097356796265e-01</leafValues></_>
        <_>
          <internalNodes>
            0 -1 0 6.1004057526588440e-02</internalNodes>
          <leafValues>
            -6.0939949750900269e-01 5.7027983665466309e-01</leafValues></_>
        <_>
          <internalNodes>
            0 -1 13 4.4088950380682945e-03</internalNodes>
          <leafValues>
            -8.9752966165542603e-01 3.5124257206916809e-01</leafValues></_>
        <_>
          <internalNodes>
            0 -1 32 3.7031140178442001e-02</internalNodes>
          <leafValues>
            -6.6400718688964844e-01 3.4542500972747803e-01</leafValues></_>
        <_>
          <internalNodes>
            0 -1 25 9.6768178045749664e-03</internalNodes>
          <leafValues>
            -7.6181489229202271e-01 3.2217991352081299e-01</leafValues></_></weakClassifiers></_>
    <!-- stage 5 -->
    <_>
      <maxWeakCount>7</maxWeakCount>
      <stageThreshold>-5.0699585676193237e-01</stageThreshold>
      <weakClassifiers>
        <_>
          <internalNodes>
            0 -1 21 -1.6595369670540094e-03</internalNodes>
          <leafValues>
            5.7250142097473145e-01 -7.8861790895462036e-01</leafValues></_>
        <_>
          <internalNodes>
            0 -1 27 3.9501395076513290e-03</internalNodes>
          <leafValues>
            -8.9106684923171997e-01 3.5551342368125916e-01</leafValues></_>
        <_>
          <internalNodes>
            0 -1 12 -2.4318501818925142e-03</internalNodes>
          <leafValues>
            3.9822539687156677e-01 -6.4438790082931519e-01</leafValues></_>
        <_>
          <internalNodes>
            0 -1 23 9.1865919530391693e-03</internalNodes>
          <leafValues>
            -7.3161673545837402e-01 3.4742373228073120e-01</leafValues></_>
        <_>
          <internalNodes>
            0 -1 6 -3.9392523467540741e-03</internalNodes>
          <leafValues>
            5.9626549482345581e-01 -4.0029776096343994e-01</leafValues></_>
        <_>
          <internalNodes>
            0 -1 10 -4.7119596274569631e-04</internalNodes>
          <leafValues>
            2.7465799450874329e-01 -8.1754606962203979e-01</leafValues></_>
        <_>
          <internalNodes>
            0 -1 35 -1.0200124233961105e-02</internalNodes>
          <leafValues>
            4.4435334205627441e-01 -4.9568060040473938e-01</leafValues></_></weakClassifiers></_>
    <!-- stage 6 -->
    <_>
      <maxWeakCount>6</maxWeakCount>
      <stageThreshold>-7.8678131103515625e-01</stageThreshold>
      <weakClassifiers>
        <_>
          <internalNodes>
            0 -1 3 1.2401688843965530e-02</internalNodes>
          <leafValues>
            5.5618941783905029e-01 -7.9250723123550415e-01</leafValues></_>
        <_>
          <internalNodes>
            0 -1 8 9.5833931118249893e-04</internalNodes>
          <leafValues>
            -9.1935092210769653e-01 3.7585869431495667e-01</leafValues></_>
        <_>
          <internalNodes>
            0 -1 18 -5.7845376431941986e-02</internalNodes>
          <leafValues>
            5.8420437574386597e-01 -4.1199138760566711e-01</leafValues></_>
        <_>
          <internalNodes>
            0 -1 19 4.2251525446772575e-03</internalNodes>
          <leafValues>
            -6.3053047657012939e-01 3.7543520331382751e-01</leafValues></_>
        <_>
          <internalNodes>
            0 -1 14 4.8064457951113582e-04</internalNodes>
          <leafValues>
            2.2193305194377899e-01 -8.7099307775497437e-01</leafValues></_>
        <_>
          <internalNodes>
            0 -1 17 1.2782730162143707e-02</internalNodes>
          <leafValues>
            -4.9676844477653503e-01 4.5045605301856995e-01</leafValues></_></weakClassifiers></_>
    <!-- stage 7 -->
    <_>
      <maxWeakCount>7</maxWeakCount>
      <stageThreshold>-9.5575553178787231e-01</stageThreshold>
      <weakClassifiers>
        <_>
          <internalNodes>
            0 -1 2 1.0017111198976636e-03</internalNodes>
          <leafValues>
            -7.5598084926605225e-01 6.0404282808303833e-01</leafValues></_>
        <_>
          <internalNodes>
            0 -1 34 -2.1210577338933945e-02</internalNodes>
          <leafValues>
            5.6875520944595337e-01 -4.0606904029846191e-01</leafValues></_>
        <_>
          <internalNodes>
            0 -1 9 -1.5926287742331624e-03</internalNodes>
          <leafValues>
            3.2876196503639221e-01 -7.0589017868041992e-01</leafValues></_>
        <_>
          <internalNodes>
            0 -1 22 1.8736597150564194e-02</internalNodes>
          <leafValues>
            -7.8712278604507446e-01 2.2402249276638031e-01</leafValues></_>
        <_>
          <internalNodes>
            0 -1 25 6.9675347767770290e-03</internalNodes>
          <leafValues>
            -8.2041746377944946e-01 2.1015967428684235e-01</leafValues></_>
        <_>
          <internalNodes>
            0 -1 33 -1.1862219311296940e-02</internalNodes>
          <leafValues>
            2.3279720544815063e-01 -7.4161440134048462e-01</leafValues></_>
        <_>
          <internalNodes>
            0 -1 1 -1.0947627015411854e-03</internalNodes>
          <leafValues>
            -9.1371721029281616e-01 1.8496461212635040e-01</leafValues></_></weakClassifiers></_></stages>
  <features>
    <_>
      <rects>
        <_>
          1 16 18 3 -1.</_>
        <_>
          7 16 6 3 3.</_></rects>
      <tilted>0</tilted></_>
    <_>
      <rects>
        <_>
          3 8 2 4 -1.</_>
        <_>
          3 10 2 2 2.</_></rects>
      <tilted>0</tilted></_>
    <_>
      <rects>
        <_>
          3 9 12 9 -1.</_>
        <_>
          7 9 4 9 3.</_></rects>
      <tilted>0</tilted></_>
    <_>
      <rects>
        <_>
          3 9 7 6 -1.</_>
        <_>
          3 12 7 3 2.</_></rects>
      <tilted>0</tilted></_>
    <_>
      <rects>
        <_>
          3 13 14 6 -1.</_>
        <_>
          3 15 14 2 3.</_></rects>
      <tilted>0</tilted></_>
    <_>
      <rects>
        <_>
          4 5 1 10 -1.</_>
        <_>
          4 10 1 5 2.</_></rects>
      <tilted>0</tilted></_>
    <_>
      <rects>
        <_>
          4 5 6 2 -1.</_>
        <_>
          4 5 3 1 2.</_>
        <_>
          7 6 3 1 2.</_></rects>
      <tilted>0</tilted></_>
    <_>
      <rects>
        <_>
          4 9 6 6 -1.</_>
        <_>
          4 9 3 3 2.</_>
        <_>
          7 12 3 3 2.</_></rects>
      <tilted>0</tilted></_>
    <_>
      <rects>
        <_>
          4 10 3 4 -1.</_>
        <_>
          4 12 3 2 2.</_></rects>
      <tilted>0</tilted></_>
    <_>
      <rects>
        <_>
          4 11 4 2 -1.</_>
        <_>
          6 11 2 2 2.</_></rects>
      <tilted>0</tilted></_>
    <_>
      <rects>
        <_>
          4 11 4 4 -1.</_>
        <_>
          6 11 2 4 2.</_></rects>
      <tilted>0</tilted></_>
    <_>
      <rects>
        <_>
          5 9 3 3 -1.</_>
        <_>
          6 9 1 3 3.</_></rects>
      <tilted>0</tilted></_>
    <_>
      <rects>
        <_>
          5 10 3 1 -1.</_>
        <_>
          6 10 1 1 3.</_></rects>
      <tilted>0</tilted></_>
    <_>
      <rects>
        <_>
          5 10 3 6 -1.</_>
        <_>
          5 13 3 3 2.</_></rects>
      <tilted>0</tilted></_>
    <_>
      <rects>
        <_>
          5 13 6 3 -1.</_>
        <_>
          8 13 3 3 2.</_></rects>
      <tilted>0</tilted></_>
    <_>
      <rects>
        <_>
          5 16 11 4 -1.</_>
        <_>
          5 18 11 2 2.</_></rects>
      <tilted>0</tilted></_>
    <_>
      <rects>
        <_>
          6 2 4 4 -1.</_>
        <_>
          6 4 4 2 2.</_></rects>
      <tilted>0</tilted></_>
    <_>
      <rects>
        <_>
          6 2 8 4 -1.</_>
        <_>
          6 4 8 2 2.</_></rects>
      <tilted>0</tilted></_>
    <_>
      <rects>
        <_>
          6 16 8 4 -1.</_>
        <_>
          6 18 8 2 2.</_></rects>
      <tilted>0</tilted></_>
    <_>
      <rects>
        <_>
          7 9 3 2 -1.</_>
        <_>
          8 9 1 2 3.</_></rects>
      <tilted>0</tilted></_>
    <_>
      <rects>
        <_>
          7 10 2 2 -1.</_>
        <_>
          8 10 1 2 2.</_></rects>
      <tilted>0</tilted></_>
    <_>
      <rects>
        <_>
          7 10 6 7 -1.</_>
        <_>
          10 10 3 7 2.</_></rects>
      <tilted>0</tilted></_>
    <_>
      <rects>
        <_>
          7 13 6 4 -1.</_>
        <_>
          7 15 6 2 2.</_></rects>
      <tilted>0</tilted></_>
    <_>
      <rects>
        <_>
          7 15 12 3 -1.</_>
        <_>
          11 15 4 3 3.</_></rects>
      <tilted>0</tilted></_>
    <_>
      <rects>
        <_>
          8 6 1 9 -1.</_>
        <_>
          8 9 1 3 3.</_></rects>
      <tilted>0</tilted></_>
    <_>
      <rects>
        <_>
          8 8 4 10 -1.</_>
        <_>
          8 8 2 5 2.</_>
        <_>
          10 13 2 5 2.</_></rects>
      <tilted>0</tilted></_>
    <_>
      <rects>
        <_>
          8 9 4 3 -1.</_>
        <_>
          10 9 2 3 2.</_></rects>
      <tilted>0</tilted></_>
    <_>
      <rects>
        <_>
          8 13 2 4 -1.</_>
        <_>
          8 15 2 2 2.</_></rects>
      <tilted>0</tilted></_>
    <_>
      <rects>
        <_>
          8 13 5 4 -1.</_>
        <_>
          8 15 5 2 2.</_></rects>
      <tilted>0</tilted></_>
    <_>
      <rects>
        <_>
          9 14 10 4 -1.</_>
        <_>
          9 14 5 2 2.</_>
        <_>
          14 16 5 2 2.</_></rects>
      <tilted>0</tilted></_>
    <_>
      <rects>
        <_>
          10 11 7 9 -1.</_>
        <_>
          10 14 7 3 3.</_></rects>
      <tilted>0</tilted></_>
    <_>
      <rects>
        <_>
          10 13 10 4 -1.</_>
        <_>
          10 13 5 2 2.</_>
        <_>
          15 15 5 2 2.</_></rects>
      <tilted>0</tilted></_>
    <_>
      <rects>
        <_>
          10 13 7 6 -1.</_>
        <_>
          10 15 7 2 3.</_></rects>
      <tilted>0</tilted></_>
    <_>
      <rects>
        <_>
          13 14 5 6 -1.</_>
        <_>
          13 17 5 3 2.</_></rects>
      <tilted>0</tilted></_>
    <_>
      <rects>
        <_>
          14 14 6 3 -1.</_>
        <_>
          17 14 3 3 2.</_></rects>
      <tilted>0</tilted></_>
    <_>
      <rects>
        <_>
          14 15 2 4 -1.</_>
        <_>
          14 17 2 2 2.</_></rects>
      <tilted>0</tilted></_></features></cascade>
</opencv_storage>
