<?xml version="1.0"?>
<opencv_storage>
<stage1>
  <maxWeakCount>8</maxWeakCount>
  <stageThreshold>-8.6829733848571777e-01</stageThreshold>
  <weakClassifiers>
    <_>
      <internalNodes>
        0 -1 54112 -7.8460911754518747e-04</internalNodes>
      <leafValues>
        6.3154315948486328e-01 -3.6406993865966797e-01</leafValues></_>
    <_>
      <internalNodes>
        0 -1 68233 -1.6996127087622881e-03</internalNodes>
      <leafValues>
        -8.7872433662414551e-01 2.6862618327140808e-01</leafValues></_>
    <_>
      <internalNodes>
        0 -1 14158 8.1104608252644539e-03</internalNodes>
      <leafValues>
        -4.7583708167076111e-01 4.1016528010368347e-01</leafValues></_>
    <_>
      <internalNodes>
        0 -1 8282 1.1441230773925781e-02</internalNodes>
      <leafValues>
        -3.2551816105842590e-01 6.0658037662506104e-01</leafValues></_>
    <_>
      <internalNodes>
        0 -1 41232 -1.1776583269238472e-02</internalNodes>
      <leafValues>
        6.5415048599243164e-01 -2.5689974427223206e-01</leafValues></_>
    <_>
      <internalNodes>
        0 -1 58109 -4.3761115521192551e-03</internalNodes>
      <leafValues>
        -9.5315790176391602e-01 1.7461112141609192e-01</leafValues></_>
    <_>
      <internalNodes>
        0 -1 49631 -1.6146223992109299e-02</internalNodes>
      <leafValues>
        3.9177900552749634e-01 -3.9342743158340454e-01</leafValues></_>
    <_>
      <internalNodes>
        0 -1 34152 -4.6255029737949371e-03</internalNodes>
      <leafValues>
        5.2888202667236328e-01 -2.8098869323730469e-01</leafValues></_></weakClassifiers></stage1>
</opencv_storage>
