<?xml version="1.0"?>
<opencv_storage>
<stage7>
  <maxWeakCount>22</maxWeakCount>
  <stageThreshold>-9.8351538181304932e-01</stageThreshold>
  <weakClassifiers>
    <_>
      <internalNodes>
        0 -1 54088 1.3772135134786367e-03</internalNodes>
      <leafValues>
        -3.5697400569915771e-01 5.0745379924774170e-01</leafValues></_>
    <_>
      <internalNodes>
        0 -1 33812 -1.8524059560149908e-03</internalNodes>
      <leafValues>
        4.2438155412673950e-01 -3.2705947756767273e-01</leafValues></_>
    <_>
      <internalNodes>
        0 -1 57953 3.6143488250672817e-04</internalNodes>
      <leafValues>
        -3.3571812510490417e-01 3.0850458145141602e-01</leafValues></_>
    <_>
      <internalNodes>
        0 -1 45105 -5.7171713560819626e-03</internalNodes>
      <leafValues>
        4.0598294138908386e-01 -2.2412207722663879e-01</leafValues></_>
    <_>
      <internalNodes>
        0 -1 6408 1.5123950317502022e-02</internalNodes>
      <leafValues>
        -1.9821128249168396e-01 4.9732226133346558e-01</leafValues></_>
    <_>
      <internalNodes>
        0 -1 27498 9.1476682573556900e-03</internalNodes>
      <leafValues>
        -1.7965048551559448e-01 4.4796922802925110e-01</leafValues></_>
    <_>
      <internalNodes>
        0 -1 65256 8.2985805347561836e-03</internalNodes>
      <leafValues>
        1.3793042302131653e-01 -8.2380336523056030e-01</leafValues></_>
    <_>
      <internalNodes>
        0 -1 77295 1.1708862148225307e-03</internalNodes>
      <leafValues>
        -2.0453748106956482e-01 4.4929766654968262e-01</leafValues></_>
    <_>
      <internalNodes>
        0 -1 68437 -4.6061672037467360e-04</internalNodes>
      <leafValues>
        1.6872386634349823e-01 -4.4247430562973022e-01</leafValues></_>
    <_>
      <internalNodes>
        0 -1 71900 -2.0554140210151672e-03</internalNodes>
      <leafValues>
        3.8399159908294678e-01 -2.0856246352195740e-01</leafValues></_>
    <_>
      <internalNodes>
        0 -1 61932 2.2764205932617188e-03</internalNodes>
      <leafValues>
        7.9416759312152863e-02 -8.8860487937927246e-01</leafValues></_>
    <_>
      <internalNodes>
        0 -1 68598 -1.8319264054298401e-03</internalNodes>
      <leafValues>
        3.1504064798355103e-01 -2.7249485254287720e-01</leafValues></_>
    <_>
      <internalNodes>
        0 -1 59113 -1.8798522651195526e-02</internalNodes>
      <leafValues>
        4.0469494462013245e-01 -1.8954278528690338e-01</leafValues></_>
    <_>
      <internalNodes>
        0 -1 27285 -2.3269152734428644e-03</internalNodes>
      <leafValues>
        2.6523312926292419e-01 -2.8392431139945984e-01</leafValues></_>
    <_>
      <internalNodes>
        0 -1 3330 3.9676940068602562e-03</internalNodes>
      <leafValues>
        -2.2357866168022156e-01 3.7412855029106140e-01</leafValues></_>
    <_>
      <internalNodes>
        0 -1 12604 -2.0874664187431335e-03</internalNodes>
      <leafValues>
        3.4150242805480957e-01 -2.1065473556518555e-01</leafValues></_>
    <_>
      <internalNodes>
        0 -1 54194 2.3192111402750015e-03</internalNodes>
      <leafValues>
        8.7806940078735352e-02 -9.0705943107604980e-01</leafValues></_>
    <_>
      <internalNodes>
        0 -1 45025 -2.9738509329035878e-04</internalNodes>
      <leafValues>
        2.3842212557792664e-01 -2.8172254562377930e-01</leafValues></_>
    <_>
      <internalNodes>
        0 -1 58478 5.2194725722074509e-03</internalNodes>
      <leafValues>
        -1.6492146253585815e-01 4.1983994841575623e-01</leafValues></_>
    <_>
      <internalNodes>
        0 -1 13724 -4.9001127481460571e-02</internalNodes>
      <leafValues>
        -5.7438594102859497e-01 1.3964690268039703e-01</leafValues></_>
    <_>
      <internalNodes>
        0 -1 39311 -1.0673777200281620e-02</internalNodes>
      <leafValues>
        -7.9320061206817627e-01 7.5610436499118805e-02</leafValues></_>
    <_>
      <internalNodes>
        0 -1 75601 2.2236076183617115e-03</internalNodes>
      <leafValues>
        -2.5242337584495544e-01 2.6495799422264099e-01</leafValues></_></weakClassifiers></stage7>
</opencv_storage>
